/*
 * Copyright (c) 2026 EdgeImpulse Inc.
 *
 * Generated by Edge Impulse and licensed under the applicable Edge Impulse
 * Terms of Service. Community and Professional Terms of Service
 * (https://edgeimpulse.com/legal/terms-of-service) or Enterprise Terms of
 * Service (https://edgeimpulse.com/legal/enterprise-terms-of-service),
 * according to your product plan subscription (the “License”).
 *
 * This software, documentation and other associated files (collectively referred
 * to as the “Software”) is a single SDK variation generated by the Edge Impulse
 * platform and requires an active paid Edge Impulse subscription to use this
 * Software for any purpose.
 *
 * You may NOT use this Software unless you have an active Edge Impulse subscription
 * that meets the eligibility requirements for the applicable License, subject to
 * your full and continued compliance with the terms and conditions of the License,
 * including without limitation any usage restrictions under the applicable License.
 *
 * If you do not have an active Edge Impulse product plan subscription, or if use
 * of this Software exceeds the usage limitations of your Edge Impulse product plan
 * subscription, you are not permitted to use this Software and must immediately
 * delete and erase all copies of this Software within your control or possession.
 * Edge Impulse reserves all rights and remedies available to enforce its rights.
 *
 * Unless required by applicable law or agreed to in writing, the Software is
 * distributed on an "AS IS" BASIS, WITHOUT WARRANTIES OR CONDITIONS OF ANY KIND,
 * either express or implied. See the License for the specific language governing
 * permissions, disclaimers and limitations under the License.
 */
// Generated on: 04.04.2026 03:33:47

#include <stdio.h>
#include <stdlib.h>
#include "edge-impulse-sdk/tensorflow/lite/c/builtin_op_data.h"
#include "edge-impulse-sdk/tensorflow/lite/c/common.h"
#include "edge-impulse-sdk/tensorflow/lite/micro/micro_mutable_op_resolver.h"
#include "edge-impulse-sdk/porting/ei_classifier_porting.h"

#if EI_CLASSIFIER_PRINT_STATE
#if defined(__cplusplus) && EI_C_LINKAGE == 1
extern "C" {
    extern void ei_printf(const char *format, ...);
}
#else
extern void ei_printf(const char *format, ...);
#endif
#endif

#define STRINGIZE(x) #x
#define STRINGIZE_VALUE_OF(x) STRINGIZE(x)

#if defined (__GNUC__)  /* GNU compiler */
#define ALIGN(X) __attribute__((aligned(X)))
#define DEFINE_SECTION(x) __attribute__((section(x)))
#elif defined (_MSC_VER)
#define ALIGN(X) __declspec(align(X))
#elif defined (__TASKING__) /* TASKING Compiler */
#define ALIGN(X) __align(X)
#define DEFINE_SECTION(x) __attribute__((section(x)))
#elif defined (__ARMCC_VERSION) /* Arm Compiler */
#define ALIGN(X) __ALIGNED(x)
#define DEFINE_SECTION(x) __attribute__((section(x)))
#elif defined (__ICCARM__) /* IAR Compiler */
#define ALIGN(x) __attribute__((aligned(x)))
#define DEFINE_SECTION(x) __attribute__((section(x)))
#elif defined (__clang__) /* LLVM/Clang Compiler */
#define ALIGN(X) __ALIGNED(x)
#define DEFINE_SECTION(x) __attribute__((section(x)))
#endif

#if defined(EI_MODEL_SECTION) && (defined(__GNUC__) || defined(__clang__))
#define MODEL_SECTION(X) __attribute__((section(STRINGIZE_VALUE_OF(X))))
#else
#define MODEL_SECTION(X)
#endif

#ifndef EI_MAX_SCRATCH_BUFFER_COUNT
#ifndef CONFIG_IDF_TARGET_ESP32S3
#define EI_MAX_SCRATCH_BUFFER_COUNT 14
#else
#define EI_MAX_SCRATCH_BUFFER_COUNT 28
#endif // CONFIG_IDF_TARGET_ESP32S3
#endif // EI_MAX_SCRATCH_BUFFER_COUNT

#ifndef EI_MAX_OVERFLOW_BUFFER_COUNT
#define EI_MAX_OVERFLOW_BUFFER_COUNT 10
#endif // EI_MAX_OVERFLOW_BUFFER_COUNT

using namespace tflite;
using namespace tflite::ops;
using namespace tflite::ops::micro;

namespace {

#if defined(EI_CLASSIFIER_ALLOCATION_STATIC_HIMAX) || defined(EI_CLASSIFIER_ALLOCATION_STATIC_HIMAX_GNU)
constexpr int kTensorArenaSize = 242576;
#else
constexpr int kTensorArenaSize = 241552;
#endif

#if defined(EI_CLASSIFIER_ALLOCATION_STATIC)
#if defined (EI_TENSOR_ARENA_LOCATION)
uint8_t tensor_arena[kTensorArenaSize] ALIGN(16) DEFINE_SECTION(STRINGIZE_VALUE_OF(EI_TENSOR_ARENA_LOCATION));
#else
uint8_t tensor_arena[kTensorArenaSize] ALIGN(16);
#endif
#elif defined(EI_CLASSIFIER_ALLOCATION_STATIC_HIMAX)
#pragma Bss(".tensor_arena")
uint8_t tensor_arena[kTensorArenaSize] ALIGN(16);
#pragma Bss()
#elif defined(EI_CLASSIFIER_ALLOCATION_STATIC_HIMAX_GNU)
uint8_t tensor_arena[kTensorArenaSize] ALIGN(16) __attribute__((section(".tensor_arena")));
#else
#define EI_CLASSIFIER_ALLOCATION_HEAP 1
uint8_t* tensor_arena = NULL;
#endif

static uint8_t* tensor_boundary;
static uint8_t* current_location;

template <int SZ, class T> struct TfArray {
  int sz; T elem[SZ];
};

enum used_operators_e {
  OP_CONV_2D, OP_DEPTHWISE_CONV_2D, OP_PAD, OP_ADD, OP_SOFTMAX,  OP_LAST
};

struct TensorInfo_t { // subset of TfLiteTensor used for initialization from constant memory
  TfLiteAllocationType allocation_type;
  TfLiteType type;
  void* data;
  TfLiteIntArray* dims;
  size_t bytes;
  TfLiteQuantization quantization;
};

typedef struct {
  TfLiteTensor tensor;
  int16_t index;
} TfLiteTensorWithIndex;

typedef struct {
  TfLiteEvalTensor tensor;
  int16_t index;
} TfLiteEvalTensorWithIndex;

TfLiteContext ctx{};
static const int MAX_TFL_TENSOR_COUNT = 4;
static TfLiteTensorWithIndex tflTensors[MAX_TFL_TENSOR_COUNT];
static const int MAX_TFL_EVAL_COUNT = 4;
static TfLiteEvalTensorWithIndex tflEvalTensors[MAX_TFL_EVAL_COUNT];
TfLiteRegistration registrations[OP_LAST];

namespace g0 {
const TfArray<4, int> tensor_dimension0 = { 4, { 1,96,96,1 } };
const TfArray<1, float> quant0_scale = { 1, { 0.0039215688593685627, } };
const TfArray<1, int> quant0_zero = { 1, { -128 } };
const TfLiteAffineQuantization quant0 = { (TfLiteFloatArray*)&quant0_scale, (TfLiteIntArray*)&quant0_zero, 0 };
const MODEL_SECTION(EI_MODEL_SECTION) ALIGN(16) int32_t tensor_data1[4*2] = { 
  0, 0, 
  0, 1, 
  0, 1, 
  0, 0, 
};
const TfArray<2, int> tensor_dimension1 = { 2, { 4,2 } };
const MODEL_SECTION(EI_MODEL_SECTION) ALIGN(8) int32_t tensor_data2[2] = { 15517, -26690, };
const TfArray<1, int> tensor_dimension2 = { 1, { 2 } };
const TfArray<2, float> quant2_scale = { 2, { 0.00027838782989419997, 0.00014576378453057259, } };
const TfArray<2, int> quant2_zero = { 2, { 0,0 } };
const TfLiteAffineQuantization quant2 = { (TfLiteFloatArray*)&quant2_scale, (TfLiteIntArray*)&quant2_zero, 0 };
const MODEL_SECTION(EI_MODEL_SECTION) ALIGN(16) int8_t tensor_data3[2*1*1*32] = { 
  /* [0][0][][] */ 8,-36,-31,32,45,-2,-19,24,39,-14,8,-36,-31,26,-16,33,35,-25,-23,-15,57,35,35,-52,-44,-50,10,127,-16,0,54,-5, 
  /* [1][0][][] */ 54,68,68,-55,-110,66,-8,10,-43,-35,32,101,101,34,41,-34,-36,1,-53,-91,-73,36,25,103,76,70,-49,-29,86,-96,-127,-13, 
};
const TfArray<4, int> tensor_dimension3 = { 4, { 2,1,1,32 } };
const TfArray<2, float> quant3_scale = { 2, { 0.0076856678351759911, 0.004024213645607233, } };
const TfLiteAffineQuantization quant3 = { (TfLiteFloatArray*)&quant3_scale, (TfLiteIntArray*)&g0::quant2_zero, 0 };
const MODEL_SECTION(EI_MODEL_SECTION) ALIGN(16) int32_t tensor_data4[32] = { 427, 40, 132, -598, 1194, 180, -381, 875, 431, 258, 140, -167, 162, 740, 62, 1266, 143, -1055, -489, 100, 242, 510, -209, -65, 306, -209, 81, 3685, -2, -20, 1974, -561, };
const TfArray<1, int> tensor_dimension4 = { 1, { 32 } };
const TfArray<32, float> quant4_scale = { 32, { 5.1986113248858601e-05, 4.5802815293427557e-05, 4.5586875785375014e-05, 4.8137735575437546e-05, 6.0631569795077667e-05, 4.5700151531491429e-05, 4.4837233872385696e-05, 4.2214935092488304e-05, 5.9943988162558526e-05, 5.4225984058575705e-05, 4.6273842599475756e-05, 5.141904330230318e-05, 4.9596208555158228e-05, 4.1963772673625499e-05, 6.2680439441464841e-05, 9.0287503553554416e-05, 4.5744447561446577e-05, 4.8425827117171139e-05, 4.3082793126814067e-05, 4.967217319062911e-05, 5.6582910474389791e-05, 4.5286291424417868e-05, 5.6042157666524872e-05, 5.2911433158442378e-05, 5.2442959713516757e-05, 4.8140540457097813e-05, 5.4339572670869529e-05, 8.7684231402818114e-05, 4.9455920816399157e-05, 4.907224138150923e-05, 7.0581583713646978e-05, 4.5995086111361161e-05, } };
const TfArray<32, int> quant4_zero = { 32, { 0,0,0,0,0,0,0,0,0,0,0,0,0,0,0,0,0,0,0,0,0,0,0,0,0,0,0,0,0,0,0,0 } };
const TfLiteAffineQuantization quant4 = { (TfLiteFloatArray*)&quant4_scale, (TfLiteIntArray*)&quant4_zero, 0 };
const MODEL_SECTION(EI_MODEL_SECTION) ALIGN(16) int8_t tensor_data5[32*1*1*96] = { 
  /* [0][0][][] */ -36,-67,87,15,89,-20,-60,-79,30,-99,-78,4,52,14,-20,46,-39,-33,-54,-31,-50,-89,9,87,-110,18,74,-38,100,10,-10,-69,57,-54,-66,72,-78,-46,-56,52,63,-102,-75,80,14,-109,81,-6,-25,-76,-9,64,-56,-31,-86,86,23,72,127,-110,-70,72,-17,50,-1,22,70,90,51,96,65,-88,101,-52,48,73,-85,-15,-39,37,51,-10,86,-27,-29,-83,-52,59,31,118,0,-96,1,81,43,-17, 
  /* [1][0][][] */ -40,22,-58,2,-27,88,39,11,63,-102,-90,114,72,-17,40,63,104,-40,26,116,-34,11,31,21,5,20,-28,108,14,18,106,-52,43,107,-1,43,65,65,4,-24,-48,-3,-21,-95,-65,27,-18,-44,-45,-108,127,67,16,97,-88,-41,17,108,72,74,-61,127,-62,-71,-48,53,81,48,109,43,19,19,-85,111,-38,44,78,-70,-25,79,-71,69,-44,-115,40,79,-52,-70,75,94,95,30,86,120,48,-47, 
  /* [2][0][][] */ 61,27,-48,94,-9,-40,89,92,-103,78,-25,123,98,-2,97,-103,-51,-23,26,57,-79,6,102,16,-43,81,111,19,-59,89,88,101,-70,-8,-78,-82,-63,97,116,15,-98,-79,14,-10,-115,106,-14,-62,75,8,106,-62,-38,81,9,26,-67,105,-44,1,-22,75,-31,69,93,65,55,94,-78,81,16,-59,55,-46,39,29,-44,-44,18,23,41,-98,-4,-44,20,-120,-1,-40,86,127,-13,13,-32,-39,-23,-100, 
  /* [3][0][][] */ 40,2,25,-35,-56,39,-100,27,30,-11,47,13,71,56,53,-2,90,73,-64,8,89,-99,-72,-94,-14,-123,-85,102,33,-98,69,-1,-50,-48,-31,-9,-80,-27,21,44,-28,-84,-96,-6,45,17,-56,-80,38,-96,40,-4,78,13,65,-114,-115,-114,-127,-53,-96,27,-50,57,48,-34,-61,-32,-39,-75,-27,77,3,-98,37,-54,29,90,73,-57,-90,-116,18,86,15,35,-64,-110,-82,31,-14,-99,72,-80,-95,35, 
  /* [4][0][][] */ 20,113,1,28,-18,-27,58,-19,23,58,-13,43,18,-15,-26,-21,-38,21,-83,57,74,-70,67,28,31,2,49,-18,-29,34,-81,-47,95,89,13,-84,-10,20,-127,-10,4,15,-73,-43,48,82,-3,46,40,-25,-29,-14,-62,55,-57,24,46,-86,-9,13,8,-45,-23,-34,-32,44,-13,2,2,-90,-68,-76,-30,22,92,63,88,31,-23,-17,16,-37,-119,-20,18,109,49,0,-55,-26,44,27,-3,64,-120,70, 
  /* [5][0][][] */ 103,-96,80,82,47,-98,30,53,84,-116,10,-50,32,101,49,35,61,58,-74,96,39,63,14,-32,-124,-55,-5,-81,50,39,28,-84,-50,11,-57,33,-94,-28,59,54,-74,-58,36,86,-67,18,34,-41,-127,72,41,39,43,31,21,-15,90,60,-39,-38,22,-51,37,-62,-22,110,-16,36,79,12,100,-56,-26,92,-17,-67,7,-76,20,87,106,28,27,95,-62,46,9,25,63,-77,115,89,-15,53,86,-124, 
  /* [6][0][][] */ 26,-30,102,63,-86,-57,-8,60,-13,-88,8,-91,71,42,104,-113,33,0,-4,84,-76,-125,94,49,-65,-85,-22,-57,-36,-113,44,-69,-94,-119,-55,-111,-21,26,-107,68,93,56,11,-15,-127,113,-102,-52,-83,15,-31,-59,51,-43,80,-53,3,-14,-71,117,-98,-7,62,-75,-56,67,88,-44,72,-18,-107,-6,44,-85,-91,-41,-83,-105,-59,-44,25,-29,33,-12,-76,-87,-39,-85,78,83,82,16,-48,-63,72,-33, 
  /* [7][0][][] */ 101,57,-30,-31,-62,107,-7,-14,89,-32,-74,1,60,-78,51,73,63,13,-15,125,58,45,-1,73,-87,112,40,55,-71,106,-11,44,12,22,76,127,-104,98,0,-21,78,-76,79,67,13,-6,66,-109,6,-77,-95,-63,-14,102,5,27,109,-79,13,-54,7,-11,95,-97,-60,-59,77,38,-103,15,66,101,84,31,80,73,-77,6,-114,46,113,-59,-45,-65,110,14,-91,76,86,21,86,66,-87,-38,12,-112, 
  /* [8][0][][] */ 25,29,-35,-64,25,-12,-62,-21,-9,36,26,61,0,-10,-66,-57,-61,67,-42,15,23,-39,54,93,-68,88,25,37,-51,6,-84,74,97,-13,41,-19,76,33,-24,-5,63,72,-105,-93,20,-17,-21,65,22,-16,-73,-13,-55,-7,-3,-60,44,58,-79,88,74,15,29,76,-35,-40,-20,74,-70,12,31,-1,51,68,4,16,-30,93,53,46,24,70,-84,-86,11,43,55,-32,41,-19,-53,65,-51,-86,-54,127, 
  /* [9][0][][] */ -20,-2,109,53,55,-113,-39,-98,68,5,-15,62,-42,-58,-93,-35,-5,-27,-114,-64,5,88,-106,-76,98,-15,-66,-4,-29,-81,-96,55,86,-29,15,-26,-68,23,-21,-69,7,-8,44,-21,125,43,-127,26,77,0,-62,-7,64,-91,-66,92,79,-60,-19,-15,-53,92,31,-49,-100,-44,68,25,-44,78,110,-62,-16,35,-82,-64,-80,-104,-57,53,45,43,44,29,-39,-50,48,17,86,21,-40,106,96,-37,60,11, 
  /* [10][0][][] */ -53,63,92,-62,-5,103,102,19,14,12,32,-61,100,81,-14,4,-36,68,-113,-57,-4,39,44,-75,0,53,-103,-106,-42,84,-77,-68,65,101,117,85,-26,5,-19,64,-30,98,-123,-38,-127,-72,-10,-55,-32,-28,52,15,62,35,-84,-28,-107,-2,35,-50,-12,86,101,42,114,-55,-85,-11,30,-20,-90,-52,95,67,-69,98,-28,30,67,18,77,-19,46,87,-86,31,105,-38,31,21,-7,-56,-51,-14,-22,-113, 
  /* [11][0][][] */ 100,1,-17,89,111,46,42,26,19,65,-54,110,1,-83,43,-54,-29,-88,43,47,47,84,-11,-87,-127,-85,-5,61,79,-2,24,0,-68,-69,52,52,-25,78,-17,-2,-10,81,-61,-41,-79,-55,-82,-50,15,63,117,65,-77,-49,-10,30,-75,-32,-65,-50,-73,72,57,2,35,78,-34,31,85,71,-85,-51,35,117,-102,38,-36,26,-30,81,-89,-21,-60,-38,50,-115,0,-30,-100,4,6,-92,-73,-20,-28,-80, 
  /* [12][0][][] */ 24,54,-39,3,87,17,-26,35,-92,44,-2,23,-27,17,60,-66,-81,-28,-52,-68,36,-2,4,84,-100,-39,98,-78,86,27,-21,109,-81,-50,-34,32,8,-67,0,69,108,29,-106,-36,-42,-72,-36,103,-60,-127,-47,102,39,17,-80,80,-17,-36,48,57,44,113,-2,51,104,49,-29,112,61,94,33,74,91,105,-8,1,-31,14,-93,-81,-45,80,40,11,-26,6,61,95,-79,-74,85,45,94,18,45,24, 
  /* [13][0][][] */ 114,-80,120,110,106,113,87,65,48,-127,30,-17,103,92,80,-42,-126,-71,-72,48,82,-6,124,-61,-52,51,22,21,-77,-78,95,41,39,117,-6,64,-57,-5,49,87,-61,76,-52,4,-80,35,-9,8,11,81,-13,-102,-90,64,97,-78,-57,38,-1,-80,-38,123,-59,26,-39,-57,-79,105,-27,-8,107,12,-74,78,-54,-33,-108,62,90,-35,71,-114,99,14,-56,-105,115,99,3,-1,-54,58,103,-15,84,-44, 
  /* [14][0][][] */ -54,-102,68,60,53,-4,-8,-72,-68,-24,40,57,-27,-49,-61,-50,-32,-58,45,29,-31,12,-10,39,-86,-40,-7,10,-73,-73,-37,18,43,-26,-25,14,75,96,39,-127,6,-76,33,56,9,-78,64,-45,49,3,67,52,70,3,16,-7,-52,0,10,71,-25,-49,-1,63,-51,-13,71,-59,-58,-30,-74,62,32,78,44,-50,22,-82,47,39,38,-9,-56,-28,-73,-81,-116,56,72,26,100,-50,60,126,-10,35, 
  /* [15][0][][] */ 3,26,-6,35,31,-77,19,-59,22,-2,-24,11,44,12,-37,-55,22,31,-34,33,57,-21,33,55,42,51,20,36,1,21,3,-66,33,19,-29,-35,-42,81,32,-103,22,61,-78,9,72,-8,-67,-70,18,27,-22,0,-51,-11,7,7,21,4,-63,80,4,-36,5,47,-25,29,-36,11,-33,-41,38,-14,-10,-13,38,-36,41,9,46,32,-29,42,-83,-51,-50,55,-44,39,51,36,-52,-20,-1,11,-48,127, 
  /* [16][0][][] */ -86,5,94,-59,23,87,-60,23,59,43,-109,53,-33,-48,-67,-67,91,65,73,54,104,52,-46,49,0,53,-80,48,-102,-3,19,-6,-85,59,40,37,-56,51,-67,-124,-1,-33,61,93,97,103,60,-26,-40,-72,-17,90,-46,89,80,29,40,62,28,8,124,79,30,53,39,-15,-47,78,27,69,-33,-17,0,59,50,85,-6,110,-123,-32,15,-65,35,8,-3,127,78,17,71,-6,-25,97,52,-64,-97,72, 
  /* [17][0][][] */ 9,-116,9,54,-54,-118,-81,-91,13,-101,53,30,72,27,-114,31,18,31,73,86,-105,-32,-12,-57,2,36,-76,6,75,-54,-49,46,-56,-44,7,-9,-51,66,-90,-30,-105,-56,-24,-15,-18,-10,64,-113,66,65,-24,9,-34,52,66,-92,-127,65,-96,-115,10,-93,47,66,-90,-80,30,-106,-110,-8,70,7,2,-125,-72,39,80,-55,18,-71,-11,-42,-77,-97,-122,42,42,-43,-2,53,-104,-121,-28,76,-11,-16, 
  /* [18][0][][] */ -102,97,95,-89,-22,-118,-113,-1,-5,72,-116,-72,-49,30,44,-62,10,-30,46,-39,86,-62,13,-85,22,-105,-33,105,12,21,-19,31,41,-30,-125,-121,-45,0,-46,44,-46,-5,-60,-12,-120,9,22,-10,14,-45,55,24,-123,-18,-8,62,-48,20,-24,-124,70,95,2,16,-82,-127,-44,84,55,-88,-78,95,-101,-19,-90,-114,48,49,-9,-81,-68,-29,-32,-75,98,-40,62,67,-110,-80,-70,99,68,-63,26,-15, 
  /* [19][0][][] */ 2,30,60,40,37,-72,69,61,88,-36,18,-26,-93,36,-53,24,57,-98,100,45,-15,55,-45,-1,72,-40,7,-55,-88,-109,-83,41,107,-78,26,9,13,-61,-56,-68,24,-119,-81,19,-40,35,34,-93,-24,39,-39,24,-36,-5,7,-2,47,79,-4,-30,37,-51,99,47,-73,-9,-39,-12,-8,42,75,-34,-61,-127,-61,-67,-23,-90,17,78,53,-93,-26,46,-97,2,21,-2,87,42,-9,59,-17,88,73,-6, 
  /* [20][0][][] */ -28,72,51,72,-63,69,15,36,19,1,-74,-5,-13,62,24,-55,-37,-23,-52,-12,28,-44,-60,-50,82,-52,-78,41,23,13,-45,78,107,26,-8,35,28,-22,-25,-100,-74,-14,-74,-74,25,-31,-76,73,110,-70,-79,41,39,84,45,11,76,51,52,58,93,-43,-44,-21,-21,-49,-43,7,-67,-68,-51,60,-59,-72,15,28,96,84,77,75,68,14,55,-31,32,127,-22,62,23,71,15,43,14,-19,-13,41, 
  /* [21][0][][] */ 92,50,71,-86,97,-65,68,5,-37,-87,-56,57,10,50,-27,-93,-96,-30,46,-1,113,-26,59,-104,43,-69,-18,54,26,4,12,-9,-14,18,-69,-86,112,110,-97,-26,-20,-1,20,-31,-127,-87,-90,100,-65,-83,9,82,40,71,-102,44,-69,63,-60,117,31,-75,28,6,90,19,-20,-64,-88,-3,42,85,29,0,75,55,-125,-60,58,103,23,94,27,-101,33,-120,45,-112,-107,88,102,-111,-64,-69,76,-97, 
  /* [22][0][][] */ 35,-55,-51,-74,60,-44,79,32,-65,55,-62,-76,89,-87,-85,-61,33,56,-127,-48,69,-48,24,21,79,-21,-78,76,-44,-54,-49,-91,13,45,16,3,4,-19,-39,-79,-16,-29,28,71,41,-91,69,-10,-58,-86,-6,-17,-46,-79,-41,28,-15,-16,-4,-30,96,-64,-68,-90,-59,11,-94,-43,79,88,-15,-14,-48,18,58,-69,34,-64,54,84,85,-84,-46,-78,70,41,80,-33,-44,24,-47,45,15,14,-33,56, 
  /* [23][0][][] */ 67,-89,0,48,79,-99,1,-95,34,-75,67,40,18,-77,38,-43,75,-33,-95,91,89,-55,75,-33,-54,-14,77,21,63,47,57,-10,-60,41,24,43,96,3,-80,34,-105,-23,10,-107,-91,-93,99,25,31,-109,-50,-36,61,-23,-77,73,-88,-3,83,11,-97,-70,-28,-14,29,39,-84,-84,65,10,90,-52,-1,2,-32,-90,37,-45,91,103,-46,-50,24,-127,92,-46,93,-37,-81,45,88,-25,77,-13,8,3, 
  /* [24][0][][] */ -45,-49,-77,-46,-62,-81,-39,-83,59,109,71,9,109,73,-10,-101,-63,38,18,-37,92,-44,-39,-9,-1,-3,66,63,93,55,10,-38,-4,25,58,35,-41,-62,61,24,-60,-94,106,15,7,-46,49,52,-95,-44,-16,22,63,65,50,-42,8,86,50,-31,69,15,28,86,-91,110,-34,-54,-79,77,-33,-6,-5,54,93,90,54,-107,-64,-67,-55,-88,-38,-127,22,-3,6,-89,34,-60,14,-47,8,51,-63,10, 
  /* [25][0][][] */ -84,-58,-83,-21,119,-50,-72,47,-26,-91,-37,36,55,-60,-99,-18,-49,99,40,-78,62,23,-39,-56,-7,-43,-78,46,79,-72,51,110,81,-105,22,84,123,-36,-25,16,-41,83,-108,-9,72,21,30,44,-91,58,-23,19,47,-14,-69,-12,-34,60,-126,58,107,49,40,50,22,80,-3,0,-83,-6,-82,-97,37,-59,55,23,65,91,-2,19,40,44,-48,85,-88,-79,-122,-96,-53,-58,76,24,-102,-13,24,-127, 
  /* [26][0][][] */ 18,-108,-13,5,-77,7,-4,-23,-84,-127,77,26,-75,-42,11,-31,97,0,-71,-51,17,41,72,13,39,48,-2,33,18,-2,-79,5,-3,-75,-76,-67,-62,69,-58,94,-96,79,53,30,-25,45,-46,65,-5,37,1,84,11,-67,-8,-95,100,58,25,-3,16,-73,55,-11,89,-25,-50,35,-63,70,62,82,35,-95,-87,13,40,-85,-86,-9,-14,74,60,-45,49,-8,-40,-1,-71,80,-6,19,-40,86,60,96, 
  /* [27][0][][] */ -22,42,9,-11,-49,-54,0,-11,22,27,68,-53,-13,47,24,18,27,6,32,-1,-37,-17,23,1,6,50,-67,-5,49,2,-4,-11,72,43,-29,-39,-72,-1,-47,-46,-59,61,0,70,127,63,-25,38,39,91,21,-56,1,-33,53,-9,65,-25,-62,-4,24,-50,24,82,42,-63,-50,78,30,-36,-45,46,6,-77,44,19,51,-18,10,32,111,16,11,3,-29,72,5,45,22,-2,-11,-14,-13,-48,40,122, 
  /* [28][0][][] */ 80,-27,88,42,-123,-57,-107,-75,-72,-83,45,60,-67,-62,5,86,81,87,-63,56,-29,27,-92,-79,-122,70,-67,-54,-63,-59,-11,-23,-114,14,78,52,22,-101,-20,35,49,0,-98,40,-101,-16,16,44,13,-46,-93,-31,-77,4,47,45,21,-8,87,30,20,-43,-96,3,47,56,-20,62,-70,22,-77,-34,66,28,0,-101,-94,-85,-79,46,-57,-75,116,-48,58,-127,63,-86,-86,-41,-32,-62,-49,29,-124,-63, 
  /* [29][0][][] */ 35,74,45,-56,-81,-4,-101,-6,111,-33,-77,-78,86,-96,-37,-50,-96,86,2,-59,-48,-60,42,7,-13,-5,-52,-9,-95,-11,71,4,55,2,-77,-63,-20,87,-25,79,43,97,-59,79,12,84,-78,-35,11,-7,43,-70,54,-67,78,37,-70,39,-79,109,-111,87,-88,-62,-62,-44,30,80,84,-84,31,-62,77,59,42,23,125,-45,-23,21,-6,-78,-28,-98,46,127,21,73,-34,86,52,74,-101,1,-5,77, 
  /* [30][0][][] */ 12,9,-19,37,-32,4,-7,-29,127,20,15,-27,-61,20,55,7,-47,26,67,-37,67,-82,-36,16,-9,53,-57,101,-3,-52,-61,13,-1,-26,-63,-11,-4,12,-23,9,60,-27,-22,105,117,-37,31,6,-44,91,35,-44,66,-33,20,69,15,-36,-64,-25,-27,10,-25,0,-56,-59,-56,74,-26,43,56,7,-81,35,31,-38,29,11,-8,-28,52,45,-69,-73,-60,51,-73,100,17,-30,55,54,-3,4,23,47, 
  /* [31][0][][] */ 61,-85,22,73,26,45,-71,-96,-17,-31,-80,-107,87,-114,-57,96,-73,-90,33,30,51,22,-25,91,35,-117,20,33,-90,-80,23,87,11,20,-96,-37,70,-50,-69,-106,35,-77,-37,37,9,-65,-40,8,63,6,66,-39,-121,-68,-88,15,-117,53,1,94,-46,-18,70,-93,48,98,-60,-82,55,-127,-110,2,-95,-78,1,-5,-58,-68,53,72,-83,-74,48,46,45,87,-97,16,21,-54,-92,-51,-13,73,-24,-33, 
};
const TfArray<4, int> tensor_dimension5 = { 4, { 32,1,1,96 } };
const TfArray<32, float> quant5_scale = { 32, { 0.0022094098385423422, 0.0019466195954009891, 0.0019374422263354063, 0.0020458537619560957, 0.0025768417399376631, 0.0019422564655542374, 0.0019055823795497417, 0.0017941347323358059, 0.0025476193986833096, 0.0023046042770147324, 0.0019666382577270269, 0.0021853093057870865, 0.0021078388672322035, 0.0017834602622315288, 0.0026639187708497047, 0.0038372187409549952, 0.0019441390177235007, 0.0020580976270139217, 0.0018310185987502337, 0.002111067296937108, 0.0024047736078500748, 0.0019246673909947276, 0.0023817915935069323, 0.0022487358655780554, 0.002228825818747282, 0.0020459729712456465, 0.0023094317875802517, 0.0037265797145664692, 0.0021018765401095152, 0.0020855702459812164, 0.0029997171368449926, 0.0019547911360859871, } };
const TfLiteAffineQuantization quant5 = { (TfLiteFloatArray*)&quant5_scale, (TfLiteIntArray*)&g0::quant4_zero, 0 };
const MODEL_SECTION(EI_MODEL_SECTION) ALIGN(16) int32_t tensor_data6[96] = { 897, -79, 3722, 6009, 3766, -1994, 5147, -2158, -1430, -1164, 5533, -1873, 4226, 6373, 1810, 1764, -915, -630, -2156, 4004, 1906, -992, 2244, -604, -794, 4847, 1883, 1857, 6318, 2801, 5196, 949, 1533, 3632, 3300, 2764, -1157, 2461, 2357, -3824, -324, 1314, -217, 1759, -537, 667, -1656, 1254, -9638, 1464, 1146, -3285, 8170, -613, 1914, 1493, 1053, 2622, -585, -3272, 268, 1622, 1, 4783, 5910, 3196, 2382, 6506, 3991, -1016, 2786, 7510, 2701, -1304, 3915, 6573, 961, -3385, 569, 1531, 9078, 2021, -1311, -1826, 951, 1028, 1393, -2078, 4310, -530, 2842, 1235, 109, -3061, -74, 2496, };
const TfArray<1, int> tensor_dimension6 = { 1, { 96 } };
const TfArray<96, float> quant6_scale = { 96, { 0.00016000559844542295, 0.0002096181851811707, 0.00015264606918208301, 0.00012455029354896396, 0.00015638965123798698, 0.00022577513300348073, 0.00011039667151635513, 0.00013594045594800264, 0.00021921515872236341, 0.00019220064859837294, 0.00011225364869460464, 0.00022924589575268328, 0.00012987914669793099, 0.00011022051330655813, 0.00016341698938049376, 0.0002069943438982591, 0.00024736259365454316, 0.00017727829981595278, 0.00014300014299806207, 0.00013885936641599983, 0.00023185595637187362, 0.00023702334146946669, 0.0001638349931454286, 0.00022498378530144691, 0.00019974783936049789, 0.00013151118764653802, 0.00015546819486189634, 0.00014540049596689641, 0.00011230217933189124, 0.00015540850290562958, 9.9156030046287924e-05, 0.00018913396343123168, 0.00021808732708450407, 0.00017707920051179826, 0.00014716044825036079, 0.00015635781164746732, 0.00020579698320943862, 0.00018781080143526196, 0.00014379917411133647, 0.00013395599671639502, 0.00016075011808425188, 0.00016432975826319307, 0.00024345853307750076, 0.00016098262858577073, 0.00019780152069870383, 0.00018376464140601456, 0.00016946846153587103, 0.00012290717859286815, 7.3074312240350991e-05, 0.00020316506561357528, 0.00018612507847137749, 0.00015659318887628615, 8.8803768448997289e-05, 0.00019150885054841638, 0.0001832636771723628, 0.00016944257367867976, 0.00016195056377910078, 0.00013940015924163163, 0.00024135730927810073, 0.00011199041910003871, 0.00019455332949291915, 0.00016566738486289978, 0.00022178457584232092, 0.0001461655629100278, 0.00011088060273323208, 0.00014053282211534679, 0.0001233405782841146, 0.00012525703641586006, 0.00015497814456466585, 0.00018197599274571985, 0.00015844053996261209, 9.2581038188654929e-05, 0.00015459515270777047, 0.00016482960199937224, 0.00018972574616782367, 0.00011791412543971092, 0.0001378161832690239, 0.00016735804092604667, 0.00017198293062392622, 0.00013338240387383848, 0.00010184715938521549, 0.00015317324141506106, 0.00013376578863244504, 0.00018081894086208194, 0.00019126826373394579, 0.00016619503730908036, 0.00013978879724163562, 0.00016327283810824156, 0.00017137947725132108, 0.00017480034148320556, 0.00019841536413878202, 0.00017356270109303296, 0.0001590833708178252, 0.00015135310241021216, 0.00024602742632851005, 0.00018540628661867231, } };
const TfArray<96, int> quant6_zero = { 96, { 0,0,0,0,0,0,0,0,0,0,0,0,0,0,0,0,0,0,0,0,0,0,0,0,0,0,0,0,0,0,0,0,0,0,0,0,0,0,0,0,0,0,0,0,0,0,0,0,0,0,0,0,0,0,0,0,0,0,0,0,0,0,0,0,0,0,0,0,0,0,0,0,0,0,0,0,0,0,0,0,0,0,0,0,0,0,0,0,0,0,0,0,0,0,0,0 } };
const TfLiteAffineQuantization quant6 = { (TfLiteFloatArray*)&quant6_scale, (TfLiteIntArray*)&quant6_zero, 0 };
const MODEL_SECTION(EI_MODEL_SECTION) ALIGN(16) int8_t tensor_data7[96*1*1*16] = { 
  /* [0][0][][] */ -5,95,-115,34,85,-16,127,88,-89,-29,36,-113,54,125,-97,16, 
  /* [1][0][][] */ -8,8,-48,-19,-4,54,36,-127,84,-58,-35,-94,-16,-64,-45,-12, 
  /* [2][0][][] */ -21,-17,32,90,35,59,-96,127,-12,0,56,-47,-18,-67,-28,48, 
  /* [3][0][][] */ 79,-99,77,-20,-19,-42,-35,127,-35,77,94,78,-13,54,-16,18, 
  /* [4][0][][] */ -35,-8,-20,30,-102,27,-36,-127,-1,-4,41,12,30,34,112,113, 
  /* [5][0][][] */ 127,22,-32,4,-74,6,16,70,37,-18,40,63,103,18,-63,-1, 
  /* [6][0][][] */ 11,-46,-100,-73,-110,10,-5,-84,-94,-74,-34,64,125,62,127,23, 
  /* [7][0][][] */ -38,42,-58,-65,-19,-66,-96,-11,-98,40,-73,-70,-115,-44,29,127, 
  /* [8][0][][] */ 36,37,35,11,39,42,67,21,52,-23,28,1,-127,-23,-36,1, 
  /* [9][0][][] */ -33,74,54,-35,-11,-8,49,16,-26,51,-55,20,73,127,66,6, 
  /* [10][0][][] */ 72,41,-58,35,-30,-34,41,-13,-107,-18,-50,-101,-127,-42,-2,92, 
  /* [11][0][][] */ 56,22,72,8,0,-32,1,95,-50,60,-23,-20,-29,-21,45,127, 
  /* [12][0][][] */ -87,-36,10,-22,12,-4,124,28,-109,39,33,29,-25,97,-88,127, 
  /* [13][0][][] */ -16,47,71,50,18,5,67,91,-41,84,-127,-28,53,84,-125,14, 
  /* [14][0][][] */ -95,101,-14,-20,-20,4,49,-11,-44,37,127,14,-87,26,-49,43, 
  /* [15][0][][] */ -12,-22,-127,-13,67,-34,-78,-27,-37,-14,-18,-69,-3,-83,-59,57, 
  /* [16][0][][] */ 127,-36,32,-6,40,-26,32,-5,-59,10,104,40,42,2,-44,-24, 
  /* [17][0][][] */ 34,26,-22,-98,12,-50,127,-102,20,-20,-62,-6,54,68,41,45, 
  /* [18][0][][] */ 44,107,-17,-22,65,-73,-35,-109,-33,127,-11,-9,11,48,-6,-26, 
  /* [19][0][][] */ -57,-110,91,-81,54,-86,21,-48,41,59,61,127,10,-28,45,-16, 
  /* [20][0][][] */ -32,127,54,12,6,5,23,-35,53,7,108,-11,-99,-21,-51,-25, 
  /* [21][0][][] */ -57,15,-12,20,58,60,62,41,-127,70,-4,42,-3,0,-47,-3, 
  /* [22][0][][] */ 2,-96,53,13,20,-127,87,1,5,-26,-37,-38,30,-92,-63,-47, 
  /* [23][0][][] */ -35,-67,60,62,67,4,40,-20,37,-55,29,-47,-1,78,76,127, 
  /* [24][0][][] */ -3,5,32,70,47,16,-52,-127,62,11,-51,-2,8,-2,-21,-34, 
  /* [25][0][][] */ 8,74,48,-42,-1,-8,32,-21,-15,66,-92,-2,40,127,94,-53, 
  /* [26][0][][] */ -87,81,2,1,24,-81,-10,-28,0,38,20,91,5,14,-103,127, 
  /* [27][0][][] */ -17,-124,-74,14,-41,127,29,-71,58,-78,54,-16,20,-62,-82,-63, 
  /* [28][0][][] */ -43,-2,32,66,13,1,-34,-127,-122,53,113,-3,61,11,-50,-19, 
  /* [29][0][][] */ -127,100,-6,-41,-37,23,-101,-66,-52,-29,1,0,0,-45,-127,58, 
  /* [30][0][][] */ 50,91,-56,67,-125,-83,-73,-35,-70,-2,34,-111,127,42,-35,121, 
  /* [31][0][][] */ 127,50,-66,-21,-89,31,83,9,-19,-8,80,51,66,26,-11,3, 
  /* [32][0][][] */ -27,-55,127,-12,10,80,78,-1,0,-21,-40,36,20,31,85,19, 
  /* [33][0][][] */ -25,37,-35,-52,19,20,127,44,36,-14,-24,-46,93,31,-68,48, 
  /* [34][0][][] */ -68,-39,86,41,45,-45,90,-9,-127,39,24,-42,58,66,-53,-23, 
  /* [35][0][][] */ -25,13,-60,5,-81,97,-41,-59,-33,127,22,124,-57,69,16,42, 
  /* [36][0][][] */ -13,-64,127,-44,-49,-23,-34,-20,36,35,-27,83,-11,-109,-1,28, 
  /* [37][0][][] */ 49,2,65,8,81,-44,-25,38,-18,127,-29,27,-73,-40,90,-39, 
  /* [38][0][][] */ 46,35,23,-100,14,-89,-100,90,-95,31,-111,-87,-84,-105,-127,96, 
  /* [39][0][][] */ -94,19,-77,6,-127,-38,110,-20,-125,-63,20,94,57,31,-15,24, 
  /* [40][0][][] */ 127,21,-42,-94,-57,0,46,-24,-37,10,-55,-103,40,41,77,21, 
  /* [41][0][][] */ 127,-63,-77,-45,24,-13,-17,-34,55,-43,34,-56,111,-77,68,-48, 
  /* [42][0][][] */ -16,-85,-40,127,22,-71,-77,37,-6,13,5,33,-59,63,-76,20, 
  /* [43][0][][] */ -58,-7,-42,-70,-45,15,4,116,79,-127,-82,31,-57,-55,-6,57, 
  /* [44][0][][] */ -51,40,37,-29,-4,-27,44,127,123,-67,36,93,75,5,0,-20, 
  /* [45][0][][] */ 26,67,-56,84,127,-67,-24,-77,127,-86,68,-78,-10,10,-70,58, 
  /* [46][0][][] */ -23,-44,11,-27,119,-40,17,41,7,127,-49,-108,13,68,-80,62, 
  /* [47][0][][] */ 121,-18,-36,-14,104,7,-62,-107,-3,118,-47,45,19,-127,-92,10, 
  /* [48][0][][] */ 36,22,40,-127,35,-12,118,-116,53,6,-88,70,108,71,-21,28, 
  /* [49][0][][] */ -1,81,-46,13,26,-47,25,23,9,19,21,-43,0,44,127,-72, 
  /* [50][0][][] */ 11,32,-26,-12,-127,11,-77,-68,43,74,41,34,-29,-43,-1,50, 
  /* [51][0][][] */ 127,-33,-54,-33,-56,63,-110,-37,29,-23,-34,48,-17,-47,7,61, 
  /* [52][0][][] */ -46,-46,20,22,-124,-89,-127,-11,-61,-51,26,-45,-10,-48,-16,78, 
  /* [53][0][][] */ 45,127,82,-96,10,99,52,-1,-13,3,-16,-66,106,-110,-36,70, 
  /* [54][0][][] */ 31,99,26,8,22,-73,-91,55,8,-5,-40,127,69,61,36,16, 
  /* [55][0][][] */ -82,-6,38,-4,34,-54,127,102,-126,-8,52,41,121,62,-18,-23, 
  /* [56][0][][] */ 127,-14,24,52,-18,124,-59,-75,14,52,-97,33,-70,75,10,-30, 
  /* [57][0][][] */ -53,-29,-45,-33,-90,-87,49,-31,-127,-29,77,60,15,46,-19,28, 
  /* [58][0][][] */ 44,-25,56,18,14,-62,-27,31,13,-14,-127,-45,10,-32,-76,46, 
  /* [59][0][][] */ 122,57,-125,104,20,69,65,-31,-65,-71,30,-127,-81,-53,47,113, 
  /* [60][0][][] */ 25,69,37,15,44,-26,-86,31,-69,-114,53,127,-50,-123,-40,-35, 
  /* [61][0][][] */ -40,11,57,-93,-81,45,-15,53,-24,-60,78,59,70,5,-14,127, 
  /* [62][0][][] */ 92,50,-8,-127,-30,-11,9,-49,-16,39,-22,41,21,-25,-60,-58, 
  /* [63][0][][] */ -8,-11,3,-22,-57,-73,-65,10,-66,1,-27,-13,127,32,47,-8, 
  /* [64][0][][] */ 25,6,-22,51,-110,-33,-32,-84,30,127,59,14,39,-52,-49,117, 
  /* [65][0][][] */ -25,25,-23,-29,-76,86,12,-60,34,-127,94,-52,84,75,-127,77, 
  /* [66][0][][] */ -83,50,-77,-68,58,-25,-127,-46,-99,119,31,-9,-66,-38,32,70, 
  /* [67][0][][] */ 1,-35,-127,-119,73,91,28,-26,-6,-15,40,-15,-10,28,22,43, 
  /* [68][0][][] */ 56,17,-7,-48,-63,44,26,18,-69,66,112,-6,-18,-48,-127,17, 
  /* [69][0][][] */ 71,-112,43,-68,24,-106,-32,127,16,58,62,82,-43,80,-31,-7, 
  /* [70][0][][] */ 55,22,98,11,61,-43,117,88,3,12,-82,-5,-127,68,-79,21, 
  /* [71][0][][] */ 16,31,94,-66,-127,-91,8,21,-29,-15,20,-119,-74,5,19,31, 
  /* [72][0][][] */ -30,-59,2,-103,62,-1,-1,41,-82,-9,-95,-2,49,127,-53,92, 
  /* [73][0][][] */ -4,-1,40,-15,86,-113,-64,30,-14,127,-50,67,-97,-87,82,9, 
  /* [74][0][][] */ -84,1,-106,-35,63,-1,-4,17,-27,-28,-127,-14,-12,-67,-6,54, 
  /* [75][0][][] */ 71,-43,51,-58,13,9,-120,-59,-19,-127,75,14,10,4,-18,10, 
  /* [76][0][][] */ 16,-30,-40,64,37,103,99,-67,98,-127,61,84,33,-86,-55,36, 
  /* [77][0][][] */ -18,-21,127,-1,60,-8,-23,-120,15,19,-5,49,53,37,32,19, 
  /* [78][0][][] */ -87,12,35,-48,9,-51,15,-15,37,21,-12,-63,-89,-87,-127,-65, 
  /* [79][0][][] */ -127,-95,-38,7,99,-15,-30,-1,27,90,25,123,-28,-84,-36,-41, 
  /* [80][0][][] */ 17,-71,37,127,-16,-8,-90,70,23,3,3,19,-63,-29,22,12, 
  /* [81][0][][] */ 112,100,-27,53,3,-34,9,115,29,19,127,41,100,36,63,-20, 
  /* [82][0][][] */ -32,27,13,-30,46,-127,-123,-71,-14,70,-95,-37,-35,114,-88,-20, 
  /* [83][0][][] */ 84,-21,91,-29,-23,-54,-127,-18,-19,-109,71,-61,-12,-26,-33,-11, 
  /* [84][0][][] */ 15,-22,-92,69,125,37,88,54,-127,14,-58,-43,57,-15,-83,7, 
  /* [85][0][][] */ -21,69,33,-40,102,34,51,-81,127,-39,-11,-15,108,-46,1,-27, 
  /* [86][0][][] */ 116,-16,115,71,10,-40,127,50,-56,-88,-101,-74,26,14,-75,10, 
  /* [87][0][][] */ -15,17,-9,-95,65,2,-26,32,75,-79,76,-52,-85,-127,2,11, 
  /* [88][0][][] */ -62,-36,54,-17,27,40,-86,-41,-14,2,-104,-127,-45,-28,-49,-13, 
  /* [89][0][][] */ -70,49,34,-72,18,8,-127,47,119,56,-66,2,-11,-109,-20,-65, 
  /* [90][0][][] */ -11,-22,-52,-100,127,20,-56,50,36,55,27,0,19,19,-74,-25, 
  /* [91][0][][] */ -36,-71,23,65,-73,22,8,127,5,-79,-4,-42,-15,46,46,88, 
  /* [92][0][][] */ -48,81,-1,-34,-34,58,-111,56,-44,-7,66,17,-32,127,11,41, 
  /* [93][0][][] */ 0,88,-46,-127,93,124,-112,4,91,84,63,25,-73,18,-21,98, 
  /* [94][0][][] */ 27,56,67,-3,-127,-48,18,-21,2,-5,27,-17,-43,-32,1,-6, 
  /* [95][0][][] */ 9,65,58,-7,60,-3,-58,55,-17,-2,-13,109,1,0,127,-91, 
};
const TfArray<4, int> tensor_dimension7 = { 4, { 96,1,1,16 } };
const TfArray<96, float> quant7_scale = { 96, { 0.0018006977625191212, 0.002359036123380065, 0.0017178738489747047, 0.0014016849454492331, 0.0017600039718672633, 0.0025408659130334854, 0.0012424004962667823, 0.0015298693906515837, 0.0024670402053743601, 0.0021630197297781706, 0.0012632989091798663, 0.0025799258146435022, 0.0014616557164117694, 0.0012404180597513914, 0.0018390894401818514, 0.0023295076098293066, 0.0027838104870170355, 0.0019950841087847948, 0.0016093188896775246, 0.0015627187676727772, 0.0026092992629855871, 0.0026674529071897268, 0.001843793666921556, 0.0025319601409137249, 0.0022479556500911713, 0.0014800225617364049, 0.0017496340442448854, 0.0016363324830308557, 0.0012638450134545565, 0.0017489622114226222, 0.0011158987181261182, 0.0021285074763000011, 0.002454347675666213, 0.0019928435795009136, 0.0016561388038098812, 0.0017596457619220018, 0.0023160325363278389, 0.0021136165596544743, 0.0016183112747967243, 0.0015075363917276263, 0.0018090765224769711, 0.0018493616953492165, 0.0027398744132369757, 0.001811693306080997, 0.0022260518744587898, 0.002068081172183156, 0.0019071925198659301, 0.0013831933028995991, 0.0008223758777603507, 0.0022864129859954119, 0.002094645518809557, 0.0017622945597395301, 0.00099939468782395124, 0.0021552343387156725, 0.0020624434109777212, 0.0019069012487307191, 0.0018225864041596651, 0.0015688048442825675, 0.0027162272017449141, 0.0012603364884853363, 0.0021894967649132013, 0.0018644152441993356, 0.0024959563743323088, 0.0016449424438178539, 0.0012478466378524899, 0.0015815518563613296, 0.001388070872053504, 0.0014096385566517711, 0.0017441189847886562, 0.0020479517988860607, 0.0017830845899879932, 0.0010419039754197001, 0.001739808707498014, 0.001854986883699894, 0.0021351673640310764, 0.0013270017225295305, 0.0015509788645431399, 0.0018834419315680861, 0.0019354902906343341, 0.0015010811621323228, 0.0011461846297606826, 0.001723806606605649, 0.0015053958632051945, 0.0020349305123090744, 0.0021525267511606216, 0.0018703534733504057, 0.0015731785679236054, 0.0018374671926721931, 0.001928699086420238, 0.0019671972841024399, 0.0022329599596560001, 0.0019532688893377781, 0.0017903189873322845, 0.0017033228650689125, 0.0027687845285981894, 0.0020865562837570906, } };
const TfLiteAffineQuantization quant7 = { (TfLiteFloatArray*)&quant7_scale, (TfLiteIntArray*)&g0::quant6_zero, 0 };
const MODEL_SECTION(EI_MODEL_SECTION) ALIGN(16) int32_t tensor_data8[16] = { 123, 14737, 3341, -2159, -3876, 4172, 5436, 9202, 16688, 201, -3984, 16015, -15633, 9975, 5117, 11820, };
const TfArray<1, int> tensor_dimension8 = { 1, { 16 } };
const TfArray<16, float> quant8_scale = { 16, { 9.8834483651444316e-05, 8.743142825551331e-05, 6.880440196255222e-05, 0.00010128632857231423, 8.8009626779239625e-05, 9.5149458502419293e-05, 7.2033602918963879e-05, 0.00011752190766856074, 0.00010444734652992338, 6.501184543594718e-05, 7.5974829087499529e-05, 0.00010359133739257231, 7.0888643676880747e-05, 7.8257668064907193e-05, 0.00011957447713939473, 8.7861604697536677e-05, } };
const TfArray<16, int> quant8_zero = { 16, { 0,0,0,0,0,0,0,0,0,0,0,0,0,0,0,0 } };
const TfLiteAffineQuantization quant8 = { (TfLiteFloatArray*)&quant8_scale, (TfLiteIntArray*)&quant8_zero, 0 };
const MODEL_SECTION(EI_MODEL_SECTION) ALIGN(16) int8_t tensor_data9[16*1*1*96] = { 
  /* [0][0][][] */ -46,26,46,11,-30,-13,-48,2,-33,27,45,-27,40,20,7,-39,-5,-15,93,34,-5,-32,127,67,44,14,-14,37,-18,-78,-78,-7,-14,-24,23,-26,12,16,-10,53,1,-13,-31,15,-65,-1,-7,68,8,-15,-3,-19,13,13,19,-22,-57,10,-4,60,21,4,10,27,-3,-30,-30,4,-37,-29,3,-18,-8,-8,-49,-29,-32,19,-5,14,-24,41,36,-61,17,38,27,28,50,14,4,-11,-26,-17,-30,9, 
  /* [1][0][][] */ 66,40,18,-29,-90,16,-16,21,-34,63,68,-32,21,-42,-124,-33,-29,-12,-65,37,-16,-58,25,38,12,-67,-42,-72,66,-127,93,-85,63,33,-31,59,44,39,-35,-11,38,-20,-20,-2,-12,72,-74,-41,-48,-40,-15,-46,18,-23,-51,77,36,10,-17,0,7,-8,-33,-68,-7,-5,-98,2,-5,-23,-54,-27,-56,-45,41,-64,9,-18,15,-22,18,-29,-65,-43,56,-34,12,-3,-103,33,-43,32,60,62,-95,48, 
  /* [2][0][][] */ 82,-40,-5,28,-13,-126,39,47,-11,-25,-12,-23,-71,-10,20,-38,-127,-35,-23,11,6,-60,-103,43,-8,-99,6,4,-75,83,-123,127,-54,96,7,0,-15,-14,-19,-8,-120,85,100,30,-10,-11,-2,-14,51,21,-75,-119,107,15,-65,88,82,-29,50,6,-41,17,-43,6,70,34,-16,-22,-9,98,-44,-20,44,-5,90,52,26,-97,87,65,81,0,-70,-1,-58,4,-32,68,18,6,-5,-10,-41,73,-70,-5, 
  /* [3][0][][] */ 14,-6,-38,40,7,6,-1,-41,-27,67,62,46,56,-16,-81,57,-28,-38,56,12,-3,127,58,-42,28,14,-31,17,100,-36,36,-26,-9,41,-34,-45,21,30,8,47,-60,-28,-41,29,-42,56,5,0,-15,-73,21,-23,54,-82,-7,-27,13,83,-43,15,-16,-39,-42,22,46,49,-14,0,7,12,42,-79,-31,-51,41,-11,22,-36,-43,-23,-20,7,-43,1,-1,-39,20,-15,22,51,32,-11,47,32,-29,34, 
  /* [4][0][][] */ 50,-14,-43,40,-5,37,-54,19,-52,92,127,-31,48,17,3,-51,3,-3,-51,61,0,-33,73,75,-60,-9,-119,32,-39,-57,6,-6,-64,-55,18,27,40,31,12,78,-51,-66,47,-19,-12,-23,-65,38,-14,34,17,-10,76,-9,-59,20,41,-7,-20,18,27,-6,14,22,-59,20,3,17,-76,65,-61,26,17,-57,-25,-12,1,-100,31,23,-37,56,-87,3,-35,42,39,-78,81,29,7,8,-68,-5,48,15, 
  /* [5][0][][] */ -29,24,3,-15,20,-52,75,-17,0,23,57,-30,70,-46,-66,-82,3,-40,63,55,-114,-22,-72,6,-21,8,-10,14,49,-97,-14,50,63,102,-9,-5,-25,6,36,6,-5,71,32,-67,-26,97,43,-26,-31,12,-3,36,20,-64,72,-82,2,-44,-44,-31,87,66,-50,47,75,-63,-127,-45,-54,-23,-50,8,-11,-8,-49,-39,67,13,-63,-19,118,-34,44,-35,-99,57,29,-14,-84,105,51,14,14,-9,-23,25, 
  /* [6][0][][] */ 54,-14,-84,41,-75,-90,82,103,-80,52,15,43,-43,-37,40,19,-7,-16,-53,22,6,26,-82,-82,-57,36,66,44,1,6,90,-77,0,21,16,-68,47,53,42,92,2,-7,-93,-63,-3,-64,-77,-4,2,-94,-32,51,48,16,-15,-77,85,55,-40,4,-127,40,-75,8,9,6,-41,40,-16,58,-16,-77,-23,6,90,75,31,-62,29,-51,-10,-50,-77,57,-8,-49,46,-8,-57,78,93,27,-44,-3,-42,73, 
  /* [7][0][][] */ 33,48,-50,-26,-27,3,18,33,-33,7,-31,-66,-25,30,-5,-15,-40,-35,-27,28,-38,127,23,7,-29,-50,23,24,10,46,67,-8,36,10,0,-18,9,8,-21,62,-57,-21,16,-17,14,-57,44,-6,16,-43,-50,-19,-5,43,-20,26,26,-30,-74,8,-58,84,32,-13,-29,9,7,10,-56,-24,-71,-14,-15,52,5,51,-52,42,21,-59,-17,-86,25,-57,32,0,-21,-19,-10,58,-53,-19,17,-14,-27,14, 
  /* [8][0][][] */ 18,62,-61,41,-44,-27,-65,43,-101,-32,75,-3,-2,41,17,57,-29,-71,-2,43,24,-12,27,-5,-33,75,-18,33,5,-37,-42,-42,-17,-60,-33,-107,-51,46,44,38,-24,-75,36,6,-68,-18,0,-34,-16,-29,57,58,20,-24,-62,95,-37,41,-23,-23,-53,-5,31,78,-30,-64,-67,-9,-63,16,-2,11,-32,-55,-125,10,-63,28,-55,-69,-30,-18,-54,-37,3,22,43,7,25,87,-41,-13,-105,-127,9,-78, 
  /* [9][0][][] */ -26,18,-47,41,-15,-53,67,49,-4,23,-86,100,-73,-17,60,127,44,26,71,-23,25,19,15,-88,-47,0,41,-10,-19,5,31,52,-44,3,6,-76,30,-19,-30,-59,1,19,54,-16,20,-26,34,34,40,96,-3,-19,-68,-69,-14,-9,-15,-26,75,-38,-63,51,-71,-66,64,1,-1,-7,-52,34,30,39,-8,98,-34,-40,-16,18,-43,-6,52,-11,62,-11,20,-45,-46,-16,-76,-15,-13,-2,71,34,-41,17, 
  /* [10][0][][] */ 48,8,-32,-24,-30,-49,76,4,20,-49,-85,-26,-127,-9,37,-20,-44,-1,-2,-5,52,5,-11,-1,-53,81,39,-27,-88,-83,2,11,55,-30,41,34,53,-52,93,54,36,-33,-10,-14,-11,-92,21,60,22,87,-86,-32,-17,15,-5,31,2,-64,82,38,40,55,-83,-40,-15,-68,4,67,23,-45,-12,65,119,34,23,-88,30,-27,37,-16,-41,26,41,56,-50,-21,10,35,-103,-23,37,62,68,48,-45,3, 
  /* [11][0][][] */ -24,-34,14,-79,2,-51,13,-6,59,-73,-17,-17,-51,-17,3,-37,-35,26,8,-29,-54,4,-83,-52,-3,35,-26,26,-57,-46,14,-16,-9,-27,15,-24,-67,39,-97,-27,-50,18,-25,26,21,-7,24,-23,23,-13,-77,-67,24,6,30,-52,-42,-95,45,-44,19,-45,-48,-98,11,-47,26,55,43,30,38,11,-15,-26,28,-31,67,59,29,8,34,-20,12,71,44,-29,-19,-15,-127,-54,31,1,38,48,-14,-1, 
  /* [12][0][][] */ 48,28,-28,-58,17,90,2,84,46,81,31,40,3,6,-16,-16,-48,70,7,40,127,10,27,-88,6,25,-72,-98,-44,43,21,-43,27,4,18,-54,26,5,8,-60,12,-19,22,47,-19,52,18,-22,-72,-4,-25,-15,-16,-5,22,4,-24,45,36,50,70,-92,12,-98,-25,94,-45,-18,-24,-44,81,51,17,-21,-15,23,-9,35,-75,23,-7,10,104,43,-13,37,-7,-71,45,20,-32,50,83,9,-73,-84, 
  /* [13][0][][] */ -18,40,-14,-53,-7,-9,-9,-1,-10,-12,-45,-65,39,-99,-45,-58,-4,-8,-75,-41,-99,2,-14,52,-6,19,110,-1,11,-48,65,28,22,16,-85,127,-11,-42,46,-64,104,29,-26,23,20,-93,45,-46,61,2,-56,-12,14,14,-12,49,45,-62,-26,-32,92,56,7,-94,-45,52,-13,15,-50,-4,-47,12,-71,30,-53,-75,-80,-28,39,110,9,31,30,-90,28,8,4,-10,-38,-21,6,25,-45,0,-16,30, 
  /* [14][0][][] */ 32,13,-64,-11,69,48,-67,6,21,-33,116,2,12,-35,-65,-85,-81,0,56,127,0,-19,3,16,-1,25,-59,76,32,-16,-46,5,44,-4,-28,-48,-14,35,38,42,35,-31,36,-13,-39,-19,47,-35,31,-41,19,-16,61,10,-18,38,16,49,-74,-5,-36,-87,-19,-62,26,-43,-70,-4,-67,53,-10,10,-2,-42,-34,-19,50,-3,-35,-48,41,6,-4,-9,-9,46,-8,-19,-24,84,67,5,4,-30,-54,-90, 
  /* [15][0][][] */ -109,-23,59,-86,23,-52,-25,-89,-1,-4,-80,72,-40,5,76,101,-66,7,0,-93,48,-47,-49,-82,35,5,73,-80,-106,-91,-48,42,-45,45,66,-39,-23,-33,51,-85,-21,31,20,-5,26,-14,85,113,-62,31,1,-45,-59,44,-6,-58,-89,-14,105,-3,1,49,-97,-19,-76,-15,-3,9,62,-88,64,-17,51,-18,-22,-53,7,33,30,8,-30,85,52,36,-9,-33,-127,22,-37,-105,-75,39,47,-42,-19,96, 
};
const TfArray<4, int> tensor_dimension9 = { 4, { 16,1,1,96 } };
const TfArray<16, float> quant9_scale = { 16, { 0.0042004655115306377, 0.0037158357445150614, 0.002924187108874321, 0.0043046688660979271, 0.0037404089234769344, 0.0040438519790768623, 0.0030614279676228762, 0.004994681105017662, 0.0044390121474862099, 0.0027630033437162638, 0.0032289300579577684, 0.0044026318937540054, 0.003012767294421792, 0.0033259508199989796, 0.0050819152966141701, 0.0037341180723160505, } };
const TfLiteAffineQuantization quant9 = { (TfLiteFloatArray*)&quant9_scale, (TfLiteIntArray*)&g0::quant8_zero, 0 };
const MODEL_SECTION(EI_MODEL_SECTION) ALIGN(16) int32_t tensor_data10[96] = { -6303, -166, -1206, -849, -947, 3603, -241, -1999, -4989, -4225, 13297, -4439, 93, 12732, 13242, -11238, 16516, -6056, -2195, 4, 2971, -2627, -1887, 182, -63, -11021, -132, -3329, -2019, -6881, -4298, -931, 2168, 2025, -1009, 205, -1158, -3056, -1775, 9579, -26, -1143, -93, -6197, 13436, 21463, 1951, 17256, -1605, 11317, 12864, -1945, -3207, 713, -618, 15752, -809, 1193, 13423, 7392, 10848, 18356, 6287, -8184, 1480, -67, -3833, 1458, -6896, -3757, 5386, 3482, 11035, -55, -409, 12167, 2364, -887, 7954, -208, 2201, 12250, -1311, -382, 8665, 2238, -5907, -1577, 6159, -9634, 14201, -825, 137, -588, -6762, -3852, };
const TfArray<96, float> quant10_scale = { 96, { 0.00024673223379068077, 0.00017307311645708978, 0.00015101364988368005, 0.0004158231895416975, 0.00022079724294599146, 0.00025315358652733266, 0.00035667145857587457, 0.00021754816407337785, 0.00019365790649317205, 0.00015932050882838666, 0.0001096152700483799, 0.00019036316371057183, 0.0001616625813767314, 0.00012419566337484866, 0.00013670926273334771, 0.0001088490171241574, 8.5845204012002796e-05, 0.000217874810914509, 0.00027752897585742176, 0.00013684591976925731, 0.00021102585014887154, 0.0003723576373886317, 0.00017201811715494841, 0.00023290912213269621, 0.00073167751543223858, 8.4101557149551809e-05, 0.0002254312566947192, 0.00017331211711280048, 0.00012393094948492944, 0.0001136719438363798, 0.00028179638320580125, 0.00018096806888934225, 0.000366769585525617, 0.00013588536239694804, 0.00030806713039055467, 0.00047865704982541502, 0.00018125523638445884, 0.00012032310769427568, 0.0002049659815384075, 0.0001224972220370546, 0.00017969163309317082, 0.00019998301286250353, 0.0003009919892065227, 9.8357602837495506e-05, 0.00010285143071087077, 7.0539761509280652e-05, 0.00016795261763036251, 7.6686563261318952e-05, 0.0001717901905067265, 0.00013193167978897691, 0.00011066954903071746, 0.00016488564142491668, 9.8555814474821091e-05, 0.00012116728612454608, 0.00022771966177970171, 9.4088325568009168e-05, 0.0002404094411758706, 0.00018571203690953553, 0.00012980088649783283, 8.4267521742731333e-05, 0.0001470602146582678, 0.0001383114285999909, 0.00014565458695869893, 0.00011728655954357237, 0.00018935580737888813, 0.00039837497752159834, 0.00026783946668729186, 0.00021032527729403228, 0.00022318129776977003, 0.00012295857595745474, 0.00021585257491096854, 0.00018505720072425902, 0.00010740350990090519, 0.00018902673036791384, 0.000306340167298913, 0.00011802321387222037, 0.00019888549286406487, 0.00023694676929153502, 0.00013876687444280833, 0.00030768872238695621, 0.00016903191863093525, 0.00010169518645852804, 0.00020936447253916413, 0.00019199794041924179, 0.00012144458742113784, 0.00013361251330934465, 0.00013462803326547146, 0.00031073964782990515, 0.00023832646547816694, 0.00010505595128051937, 9.9628508905880153e-05, 0.00022790086222812533, 0.00028819279395975173, 0.0002379877696512267, 0.00011238730803597718, 0.00031045713694766164, } };
const TfLiteAffineQuantization quant10 = { (TfLiteFloatArray*)&quant10_scale, (TfLiteIntArray*)&g0::quant6_zero, 0 };
const MODEL_SECTION(EI_MODEL_SECTION) ALIGN(16) int8_t tensor_data11[1*3*3*96] = { 
  /* [0][0][][] */ 47,116,-13,127,-54,15,45,37,127,-47,-106,70,-53,17,31,63,-127,28,83,58,8,77,97,84,15,68,-82,36,-96,14,44,-34,-36,59,-52,10,18,-42,17,-39,25,-75,-3,-45,-103,-127,22,-47,-48,-32,-41,11,59,96,-2,-14,-70,-125,-46,-127,-127,-52,-81,28,-45,29,68,-30,4,95,12,12,-40,25,53,-6,-69,-93,-62,39,-7,-35,101,3,3,-62,24,27,-125,33,-81,68,37,-58,75,-8, -34,-63,71,66,-48,82,3,-1,119,43,-57,70,-98,3,-127,86,-110,112,-35,127,119,14,127,95,35,127,14,11,-19,127,-5,-127,64,104,20,12,46,4,-45,-127,127,18,24,127,-53,-121,127,-92,23,-114,-105,-51,41,97,-14,-117,4,-2,-127,-101,-37,-103,-48,127,-27,84,127,-25,13,127,127,13,-15,3,-30,-72,-3,-87,14,127,-40,-38,127,-72,-18,-127,127,18,124,34,-50,22,127,-24,116,60, 42,-127,15,59,-37,-13,15,37,97,62,-93,36,-38,23,0,47,-75,23,55,22,-5,61,73,71,25,78,51,29,116,6,43,-67,-53,-120,-60,-16,13,-43,8,-50,-27,71,-20,27,-127,-125,12,-44,-6,-35,-94,9,43,35,-47,8,50,-99,6,-98,-111,-73,-46,-6,67,20,40,-44,3,64,7,-1,-6,-75,-49,7,-35,-28,-42,17,-24,-127,38,5,18,-58,16,-59,-86,37,-85,23,31,63,43,-23, 
  /* [0][1][][] */ 113,-6,24,64,8,-34,89,49,4,-127,-127,127,-28,-114,-95,87,-79,-53,127,39,-123,-1,-111,-127,5,22,-127,127,-106,73,124,76,48,67,7,127,-104,66,3,-55,95,-127,33,67,-51,-86,-21,-127,-124,-14,-81,17,105,-10,70,-61,-127,-10,-89,-13,-57,-81,-35,36,-127,-29,36,-42,-8,59,-58,-127,-107,80,127,-127,42,77,-127,-35,127,-40,-61,127,-59,14,38,70,-86,74,-85,7,-28,-108,101,21, -127,22,-123,5,-21,-127,-127,-127,113,20,-39,65,-50,-127,-3,67,-101,-127,94,64,34,-127,-102,19,-127,40,38,17,-27,-14,-127,17,-127,72,127,72,3,111,127,-45,-20,32,-13,89,-5,-59,-84,-103,23,-70,-35,127,86,50,74,-127,18,60,72,5,-51,-37,-127,109,-9,-127,-29,127,31,47,-95,-42,49,63,-105,-103,102,127,45,-87,-111,-22,-126,82,-81,-68,19,127,64,75,-127,-127,-85,-55,33,127, 63,-49,77,43,25,-29,2,47,0,100,-87,75,-11,-48,-105,67,-19,-29,93,52,-127,22,-73,-123,19,-11,108,62,127,68,43,-74,39,-127,-24,82,-109,76,-19,-57,-19,93,52,48,-60,-45,-4,-73,127,-20,-127,-11,90,-55,-127,-44,64,-1,-104,79,-59,-127,-17,36,109,-32,34,-3,-4,60,-52,-59,-67,-127,-16,-88,12,41,-97,-18,-104,-97,-22,109,-127,10,20,-33,-88,41,-14,16,-5,127,45,8, 
  /* [0][2][][] */ 79,-112,21,52,-10,8,20,70,-10,-53,-2,-30,80,-59,-71,127,-43,65,-8,19,-2,29,-14,-22,52,105,-6,45,-78,2,5,62,7,-11,-17,-30,58,87,30,-73,-41,-46,26,15,-60,-79,-51,-10,0,-37,-12,19,11,-44,5,7,11,23,-10,62,-62,-15,54,-20,-38,37,-4,-4,30,84,-18,25,-48,30,49,-36,-127,-16,-31,-11,21,-36,11,3,-31,81,61,2,-72,75,-9,57,-18,-9,127,-5, -29,26,127,-31,127,19,-35,30,-94,28,-118,-50,127,-60,-102,119,7,107,-62,-4,-13,22,-4,-5,53,41,-21,-2,5,65,-17,107,-22,-2,36,-1,127,127,57,-55,-16,-1,-127,42,-43,-64,-75,-47,-4,-127,-17,57,127,-127,4,-115,-6,127,-15,3,28,-100,38,80,-12,42,2,22,127,31,5,100,-127,30,-8,-72,3,-88,-32,-3,-15,-28,-67,-61,22,104,24,-16,127,127,-4,35,-17,-6,34,59, 48,122,30,-11,0,-11,-5,55,-2,94,-8,-61,61,-46,-29,105,-7,69,-16,13,-24,29,-14,-26,11,112,4,67,63,15,25,6,23,-86,-23,28,20,71,24,-48,-32,39,61,75,-17,26,-31,-50,-8,-25,-27,-9,-16,-57,-18,28,14,25,5,70,-18,-14,52,-16,18,31,-15,5,29,96,-11,17,-30,-8,-36,-70,-71,12,-46,1,-8,-40,18,-7,-31,59,63,-46,-84,56,-22,53,-14,57,99,-31, 
};
const TfArray<4, int> tensor_dimension11 = { 4, { 1,3,3,96 } };
const TfArray<96, float> quant11_scale = { 96, { 0.0104861194267869, 0.0073556071147322655, 0.0064180800691246986, 0.017672484740614891, 0.0093838823959231377, 0.010759026743471622, 0.015158536843955517, 0.0092457970604300499, 0.0082304608076810837, 0.0067711216397583485, 0.004658648744225502, 0.0080904345959424973, 0.0068706595338881016, 0.0052783158607780933, 0.0058101434260606766, 0.0046260831877589226, 0.0036484210286289454, 0.0092596793547272682, 0.011794981546700001, 0.005815951619297266, 0.0089685982093214989, 0.015825198963284492, 0.0073107699863612652, 0.0098986374214291573, 0.031096294522285461, 0.003574316157028079, 0.0095808282494544983, 0.0073657650500535965, 0.005267065018415451, 0.0048310575075447559, 0.011976346373558044, 0.0076911426149308681, 0.015587707050144672, 0.0057751275599002838, 0.013092853128910065, 0.020342923700809479, 0.0077033471316099167, 0.0051137320697307587, 0.0087110539898276329, 0.0052061318419873714, 0.0076368940062820911, 0.0084992777556180954, 0.012792158871889114, 0.0041801980696618557, 0.0043711857870221138, 0.002997939707711339, 0.0071379859000444412, 0.0032591789495199919, 0.0073010828346014023, 0.0056070960126817226, 0.0047034556046128273, 0.0070076393894851208, 0.0041886218823492527, 0.0051496094092726707, 0.0096780853345990181, 0.0039987536147236824, 0.010217401199042797, 0.0078927613794803619, 0.0055165374651551247, 0.0035813695285469294, 0.0062500592321157455, 0.0058782356791198254, 0.006190320011228323, 0.0049846787005662918, 0.0080476216971874237, 0.016930935904383659, 0.011383176781237125, 0.008938823826611042, 0.009485204704105854, 0.0052257394418120384, 0.009173734113574028, 0.0078649306669831276, 0.0045646489597856998, 0.0080336360260844231, 0.013019457459449768, 0.005015986505895853, 0.0084526333957910538, 0.010070237331092358, 0.0058975922875106335, 0.01307677011936903, 0.0071838563308119774, 0.0043220454826951027, 0.0088979899883270264, 0.0081599121913313866, 0.0051613948307931423, 0.005678531713783741, 0.0057216910645365715, 0.013206434436142445, 0.010128874331712723, 0.0044648777693510056, 0.0042342115193605423, 0.0096857864409685135, 0.01224819291383028, 0.010114479809999466, 0.0047764605842530727, 0.013194427825510502, } };
const TfLiteAffineQuantization quant11 = { (TfLiteFloatArray*)&quant11_scale, (TfLiteIntArray*)&g0::quant6_zero, 3 };
const MODEL_SECTION(EI_MODEL_SECTION) ALIGN(16) int32_t tensor_data12[96] = { 4964, 2717, 810, -3696, 5301, 4397, 8130, 1392, -813, 10514, 3340, -2300, 2404, 4157, 2240, 157, 3934, 9837, -3729, -1378, 6128, 7934, 8103, -1835, -6260, -408, 10425, -1640, 1246, 59, 10604, -667, 10998, 3649, 5612, -4599, 272, -3087, 1215, 1905, 2630, 2232, 1809, -499, 272, 1779, 3960, 2790, 2808, 2887, 8139, 1658, -1521, 2158, 1124, 1536, 2483, 5990, 4931, 2573, -1109, 10043, 2794, 3885, 3747, 9206, -3708, 1900, 5674, -1172, 6620, 889, 3717, 4316, 6123, 1079, -1920, 1770, 1604, 3927, 2746, 3196, 10049, 1012, 2432, 6235, -321, -1412, 23367, 599, 754, -717, 7541, 5421, -901, -1638, };
const TfArray<96, float> quant12_scale = { 96, { 0.00015049969078972936, 0.00014665052003692836, 0.00016434537246823311, 0.00012981865438632667, 0.00013863624189980328, 0.00012453894305508584, 0.0001077872802852653, 0.00015316020289901644, 0.0001827618689276278, 7.8275043051689863e-05, 0.00011480644752737135, 0.00016151744057424366, 0.00016868869715835899, 0.00014755214215256274, 0.00015451424405910075, 0.00015857773541938514, 0.0001439759653294459, 8.6322790593840182e-05, 9.4261056801769882e-05, 0.00011074123904109001, 9.9756965937558562e-05, 9.5932904514484107e-05, 8.9586297690402716e-05, 0.00013314015814103186, 0.00010219838441116735, 0.00015676589100621641, 7.7207638241816312e-05, 0.00013052542635705322, 0.00011669856758089736, 0.00025542915682308376, 8.1369427789468318e-05, 0.00020261382451280951, 7.2683629696257412e-05, 0.00014803532394580543, 0.00013435701839625835, 0.00014194668619893491, 0.000153372558997944, 0.00013876457524020225, 0.00010812418622663245, 0.00017827945703174919, 0.00016824864724185318, 0.0001445913512725383, 0.00021988127264194191, 0.00018398152315057814, 0.00024074681277852505, 0.00019107741536572576, 0.00015350301691796631, 0.00017148152983281761, 0.0002079680998576805, 0.00015408091712743044, 9.7338925115764141e-05, 0.00020582150318659842, 0.00018374246428720653, 0.0001511450536781922, 0.00020118182874284685, 0.00018243277736473829, 0.0001461953652324155, 0.00010163988918066025, 0.0001299496361752972, 9.7808704595081508e-05, 0.00020801444770768285, 8.3354745584074408e-05, 0.00015737040666863322, 0.00014318010653369129, 0.00013361130550038069, 9.0622328571043909e-05, 0.00014500944234896451, 0.00020113350183237344, 0.00010620084503898397, 0.00016935871099121869, 0.00011100267875008285, 0.00016199905076064169, 0.00011604589235503227, 0.00010294938692823052, 0.00010292774095432833, 0.00014495816139969975, 0.00011522345448611304, 0.00017264146299567074, 0.00017467417637817562, 0.00014665615162812173, 0.00016676953237038106, 0.00012595336011145264, 7.641343108844012e-05, 0.00015924236504361033, 0.00014930046745575964, 0.00010842221672646701, 0.00018733977049123496, 0.00022152993187773973, 4.4355088903103024e-05, 0.00018471726798452437, 0.00029392327996902168, 0.00018434031517244875, 0.00010440201731398702, 0.00010044098598882556, 0.00015783593698870391, 0.00014782097423449159, } };
const TfLiteAffineQuantization quant12 = { (TfLiteFloatArray*)&quant12_scale, (TfLiteIntArray*)&g0::quant6_zero, 0 };
const MODEL_SECTION(EI_MODEL_SECTION) ALIGN(16) int8_t tensor_data13[96*1*1*16] = { 
  /* [0][0][][] */ -57,6,-62,-32,-38,-33,-50,-52,15,-20,45,-47,29,-127,6,-54, 
  /* [1][0][][] */ -78,49,-30,-37,-49,25,5,9,-19,-5,127,-7,0,12,-39,12, 
  /* [2][0][][] */ -14,-14,-11,-38,-8,-36,-6,-40,-89,60,59,10,-14,59,-70,127, 
  /* [3][0][][] */ -35,-57,0,-27,-58,-35,-57,-127,-1,-10,52,-78,-65,-3,-94,22, 
  /* [4][0][][] */ 54,8,11,0,-90,12,-127,34,-17,28,19,1,21,42,-20,-42, 
  /* [5][0][][] */ -47,15,-63,15,47,-26,-4,-53,127,-3,-43,21,-16,-100,-74,-106, 
  /* [6][0][][] */ -40,-59,-4,4,-76,74,49,5,-11,-40,67,38,-26,3,-127,14, 
  /* [7][0][][] */ -92,127,118,-28,75,106,34,-65,67,103,-38,-42,65,-7,55,-8, 
  /* [8][0][][] */ -35,-39,-9,-15,18,-12,80,105,-18,-34,-65,-33,41,127,-27,-50, 
  /* [9][0][][] */ -28,26,47,51,-50,-123,-117,-110,82,-17,111,35,-87,-127,59,13, 
  /* [10][0][][] */ -53,-107,-15,-87,-127,70,12,42,-25,-39,19,-19,-40,18,-79,85, 
  /* [11][0][][] */ 65,-49,63,-7,-79,-29,30,-17,127,85,-18,18,23,-99,-46,56, 
  /* [12][0][][] */ -58,-12,100,-59,47,8,64,64,46,-25,63,92,-24,4,-127,11, 
  /* [13][0][][] */ 19,-26,-30,-27,-21,24,87,16,-127,37,15,27,-70,56,99,-43, 
  /* [14][0][][] */ 80,13,106,-17,20,26,72,53,1,43,62,-5,5,-7,57,-127, 
  /* [15][0][][] */ -22,89,-13,-69,25,127,-56,65,-63,-44,-31,-60,-42,98,-56,17, 
  /* [16][0][][] */ -41,91,122,-2,51,126,4,-26,-17,26,-70,46,127,12,124,118, 
  /* [17][0][][] */ -47,73,71,-100,49,-60,-34,-18,-113,127,-17,35,-72,20,38,8, 
  /* [18][0][][] */ -100,-14,-83,-68,79,24,-38,-36,48,65,127,66,-53,52,-31,48, 
  /* [19][0][][] */ 35,97,98,99,59,-71,-30,15,-41,117,89,127,110,41,-63,59, 
  /* [20][0][][] */ 110,-5,-13,127,-73,71,-11,112,-48,-61,-109,-52,84,-102,53,-39, 
  /* [21][0][][] */ -73,-127,-23,-29,-30,-61,-55,71,-19,105,-23,4,-56,-7,-49,44, 
  /* [22][0][][] */ -52,-19,2,-95,127,-22,-2,-31,45,87,70,86,-72,75,-67,42, 
  /* [23][0][][] */ -102,-17,-7,-1,101,45,127,52,39,107,15,-26,-40,-22,-109,-14, 
  /* [24][0][][] */ 54,-116,49,74,68,44,96,-49,127,23,-4,47,-66,12,34,1, 
  /* [25][0][][] */ 127,-5,121,51,1,-20,6,91,78,-3,-55,19,60,-57,30,-32, 
  /* [26][0][][] */ 88,20,127,55,34,9,-2,-31,-11,39,-33,101,36,-88,69,-77, 
  /* [27][0][][] */ -88,-37,-62,-24,-21,35,52,-67,70,-49,66,-14,11,-44,48,127, 
  /* [28][0][][] */ -107,-13,-109,-106,24,-94,-90,-127,-86,97,8,123,-60,-105,-64,114, 
  /* [29][0][][] */ 84,69,-46,-9,58,33,6,11,49,59,14,40,-127,46,-31,75, 
  /* [30][0][][] */ -43,76,-98,-18,69,-74,1,75,-127,11,-64,-8,50,77,-36,125, 
  /* [31][0][][] */ 12,-108,64,46,61,-111,-127,38,-15,-2,0,-37,-53,101,10,57, 
  /* [32][0][][] */ -66,96,-32,57,-100,72,50,127,30,-35,28,-60,9,40,79,65, 
  /* [33][0][][] */ -125,0,57,109,-10,-25,-43,26,-21,-5,12,-30,-45,-12,-4,127, 
  /* [34][0][][] */ 9,16,-127,-71,78,-14,-5,74,28,17,-20,-29,-48,-42,24,108, 
  /* [35][0][][] */ 16,-22,30,-35,1,30,-77,4,4,-127,-57,23,-24,-38,77,-29, 
  /* [36][0][][] */ -7,40,-109,-12,11,87,4,60,-46,-29,45,-29,1,89,-53,127, 
  /* [37][0][][] */ 44,41,49,-55,44,-127,83,-42,-93,59,-80,-11,39,12,88,40, 
  /* [38][0][][] */ -75,89,45,-55,60,15,87,-63,31,17,-113,52,-36,-93,-127,-4, 
  /* [39][0][][] */ 37,71,-124,-127,0,7,-23,-78,-23,54,-8,-37,35,-3,-72,-68, 
  /* [40][0][][] */ -59,33,-64,-37,-45,26,12,-127,-8,1,-9,-45,82,77,5,54, 
  /* [41][0][][] */ -49,-121,6,89,61,-34,-64,101,-8,-101,-5,-86,-127,-20,21,-26, 
  /* [42][0][][] */ -29,100,-24,-127,-29,32,16,-34,63,7,-44,41,-3,15,-16,-17, 
  /* [43][0][][] */ 4,13,-29,29,127,61,-28,39,24,97,6,-63,-124,-51,-8,-22, 
  /* [44][0][][] */ 84,27,54,80,-20,-10,10,21,30,-22,30,-21,127,6,-59,-56, 
  /* [45][0][][] */ 3,-122,-107,36,-71,-57,33,35,51,-37,-33,59,-61,127,51,-36, 
  /* [46][0][][] */ -46,-127,39,70,-17,53,-43,15,59,-16,31,47,65,63,11,53, 
  /* [47][0][][] */ -20,-40,-17,69,9,7,74,-4,33,-38,-127,-40,23,-69,-38,28, 
  /* [48][0][][] */ -65,74,-48,-15,-15,9,-4,-127,12,-11,32,0,14,-76,-23,9, 
  /* [49][0][][] */ -39,59,117,-57,40,-1,127,66,-88,-25,-33,49,-58,70,-116,-1, 
  /* [50][0][][] */ 35,66,-77,40,26,-66,-99,2,-127,44,-48,-18,75,-54,-122,-75, 
  /* [51][0][][] */ -63,25,-25,55,-41,16,-21,-48,-19,-50,23,-16,27,18,-30,127, 
  /* [52][0][][] */ -127,-8,19,-2,26,57,32,13,24,-70,-20,-44,-72,-61,-80,-4, 
  /* [53][0][][] */ -68,-124,-46,-127,-36,35,58,67,68,-87,-55,55,22,25,31,52, 
  /* [54][0][][] */ -24,-86,-23,-9,-23,64,39,-8,10,-51,70,8,-30,11,-127,33, 
  /* [55][0][][] */ 24,-32,-18,60,42,1,57,49,-36,-92,-127,-32,65,3,-1,30, 
  /* [56][0][][] */ 62,-45,-123,-17,-127,42,-90,-54,-1,-36,-31,29,18,-39,51,71, 
  /* [57][0][][] */ -66,10,8,-53,105,-9,127,33,-45,61,-28,69,-70,78,-71,0, 
  /* [58][0][][] */ 43,13,4,9,42,18,-35,-75,74,-127,-57,-14,-65,-87,-35,29, 
  /* [59][0][][] */ 40,-77,15,6,32,127,-95,-91,106,62,-123,86,6,-20,-5,-82, 
  /* [60][0][][] */ 12,-81,-21,-12,-127,-21,59,0,-14,8,-15,29,12,-58,28,69, 
  /* [61][0][][] */ -10,46,-66,-10,-69,26,-126,-70,-29,26,79,50,127,-50,81,84, 
  /* [62][0][][] */ 8,-6,3,-17,-54,8,9,86,-71,126,19,78,71,58,90,127, 
  /* [63][0][][] */ 12,-127,-19,-17,-90,3,99,-43,-23,10,-9,16,-59,108,117,116, 
  /* [64][0][][] */ -28,15,-127,-29,21,53,-1,13,-57,-123,47,10,101,-28,-37,119, 
  /* [65][0][][] */ -54,-5,67,36,56,-58,37,79,-35,49,-103,-65,-7,97,-127,25, 
  /* [66][0][][] */ -64,-99,13,-74,-43,-127,56,-16,51,-11,5,66,-38,-20,-93,66, 
  /* [67][0][][] */ -13,-76,-52,-2,-40,66,-19,-127,-33,-41,-49,-104,-36,-51,-40,12, 
  /* [68][0][][] */ 65,92,127,-55,-102,-40,-47,-98,-87,-118,-35,-48,-60,-14,-18,-58, 
  /* [69][0][][] */ 40,-4,43,-46,-35,-66,-29,89,-45,127,-48,17,45,65,94,-16, 
  /* [70][0][][] */ 17,-16,-14,61,-99,11,-33,-84,72,127,0,57,52,-41,-7,41, 
  /* [71][0][][] */ 60,-56,71,102,-59,-24,19,-11,127,17,-12,96,48,-63,41,7, 
  /* [72][0][][] */ -67,-21,12,47,48,-103,-77,72,96,37,56,34,-62,-123,-98,127, 
  /* [73][0][][] */ 93,3,127,-64,99,-11,-96,49,-12,125,-85,48,2,-46,29,-124, 
  /* [74][0][][] */ 110,55,38,13,-127,-75,49,-26,-89,-26,11,-22,21,-72,33,1, 
  /* [75][0][][] */ 78,115,-127,0,64,70,2,-42,-88,-54,22,17,-83,79,29,93, 
  /* [76][0][][] */ -61,-60,38,-36,-95,-67,35,-74,-74,48,117,38,-31,-127,-116,106, 
  /* [77][0][][] */ -51,127,-28,4,-33,-110,-1,19,-2,-22,2,85,-39,54,-23,115, 
  /* [78][0][][] */ 127,11,-49,-3,-25,5,-60,-35,-1,-28,-61,-15,41,-123,24,14, 
  /* [79][0][][] */ -24,29,45,7,-37,-63,-42,-2,-27,37,22,-46,-32,59,-49,127, 
  /* [80][0][][] */ 39,83,26,-127,22,73,47,-42,36,33,-45,73,43,-38,5,-40, 
  /* [81][0][][] */ 29,-20,58,-98,107,26,31,127,103,92,-29,-51,-12,93,-85,-84, 
  /* [82][0][][] */ 127,109,83,39,103,-70,8,21,3,102,-69,30,39,25,61,-100, 
  /* [83][0][][] */ -54,46,0,18,62,45,87,96,4,36,39,-43,-85,60,-81,-127, 
  /* [84][0][][] */ -44,-19,24,73,25,-127,-38,9,-41,56,-73,13,-121,40,-52,-109, 
  /* [85][0][][] */ -127,90,7,-15,83,-75,32,-18,-37,83,-84,-20,-110,-83,-93,-21, 
  /* [86][0][][] */ 2,31,69,127,18,-28,34,15,0,40,-26,-64,114,35,-95,-49, 
  /* [87][0][][] */ -19,51,127,1,-94,-10,28,10,49,-38,17,38,-63,0,-13,-25, 
  /* [88][0][][] */ 26,-107,-111,78,10,53,21,35,-36,-81,-56,-68,127,-16,21,47, 
  /* [89][0][][] */ 22,-9,33,-127,4,-40,-50,55,92,-52,44,-125,-15,-43,30,-45, 
  /* [90][0][][] */ -7,76,8,5,-38,30,35,88,-15,-26,-15,127,44,20,-25,55, 
  /* [91][0][][] */ -26,46,1,70,93,82,-60,-58,-88,-16,-9,-13,-76,-67,-127,-48, 
  /* [92][0][][] */ -19,44,13,-10,-127,4,-48,38,-24,57,44,40,14,-33,15,32, 
  /* [93][0][][] */ 127,59,58,13,-118,-104,44,21,-56,-61,-15,-47,1,-73,16,4, 
  /* [94][0][][] */ -15,-102,46,-110,22,-21,-23,3,127,12,-9,59,31,64,-59,50, 
  /* [95][0][][] */ -26,-78,-27,-54,75,29,-37,25,127,29,-52,19,-13,29,-26,23, 
};
const TfArray<96, float> quant13_scale = { 96, { 0.0022346102632582188, 0.0021774580236524343, 0.0024401901755481958, 0.0019275395898148417, 0.0020584624726325274, 0.0018491466762498021, 0.0016004190547391772, 0.0022741134744137526, 0.0027136371936649084, 0.0011622231686487794, 0.0017046391731128097, 0.0023982012644410133, 0.0025046796072274446, 0.0021908453200012445, 0.0022942181676626205, 0.0023545527365058661, 0.0021377464290708303, 0.0012817155802622437, 0.0013995824847370386, 0.0016442792257294059, 0.0014811854343861341, 0.0014244059566408396, 0.0013301719445735216, 0.0019768569618463516, 0.0015174354193732142, 0.0023276505526155233, 0.0011463743867352605, 0.001938033732585609, 0.0017327333334833384, 0.003792596748098731, 0.0012081683380529284, 0.0030083977617323399, 0.00107920216396451, 0.0021980195306241512, 0.0019949248526245356, 0.0021076158154755831, 0.0022772664669901133, 0.0020603679586201906, 0.0016054214211180806, 0.0026470825541764498, 0.0024981456808745861, 0.0021468836348503828, 0.0032647838816046715, 0.0027317465282976627, 0.0035745941568166018, 0.0028371058870106936, 0.0022792036179453135, 0.0025461474433541298, 0.0030878977850079536, 0.0022877841256558895, 0.0014452824834734201, 0.0030560253653675318, 0.0027281970251351595, 0.0022441926412284374, 0.0029871356673538685, 0.0027087507769465446, 0.0021706998813897371, 0.001509142923168838, 0.0019294844241812825, 0.0014522577403113246, 0.0030885860323905945, 0.0012376462109386921, 0.0023366264067590237, 0.0021259295754134655, 0.0019838525913655758, 0.0013455548323690891, 0.0021530913654714823, 0.0029864180833101273, 0.0015768636949360371, 0.0025146279949694872, 0.001648161094635725, 0.0024053521919995546, 0.001723042456433177, 0.0015285862609744072, 0.001528264838270843, 0.0021523300092667341, 0.0017108309548348188, 0.0025633699260652065, 0.002593551529571414, 0.0021775416098535061, 0.0024761839304119349, 0.0018701480003073812, 0.0011345819802954793, 0.0023644210305064917, 0.0022168043069541454, 0.0016098464839160442, 0.0027816095389425755, 0.0032892629969865084, 0.00065858167363330722, 0.0027426709420979023, 0.0043641552329063416, 0.0027370739262551069, 0.0015501548768952489, 0.0014913417398929596, 0.0023435384500771761, 0.0021948369685560465, } };
const TfLiteAffineQuantization quant13 = { (TfLiteFloatArray*)&quant13_scale, (TfLiteIntArray*)&g0::quant6_zero, 0 };
const MODEL_SECTION(EI_MODEL_SECTION) ALIGN(16) int32_t tensor_data14[16] = { -34057, 215, 3828, -20852, 8403, -13446, 22552, -4489, 16089, -8068, 19424, 11319, -3575, -28848, -5987, 7686, };
const TfArray<16, float> quant14_scale = { 16, { 8.8581058662384748e-05, 9.2839734861627221e-05, 7.6201686169952154e-05, 6.7503853642847389e-05, 0.00011203598114661872, 0.00010121673403773457, 7.0699308707844466e-05, 6.6058928496204317e-05, 0.00010642504639690742, 8.0151970905717462e-05, 8.50725919008255e-05, 8.7011729192454368e-05, 0.00010428488167235628, 0.00011808139242930338, 7.5474839832168072e-05, 8.2500657299533486e-05, } };
const TfLiteAffineQuantization quant14 = { (TfLiteFloatArray*)&quant14_scale, (TfLiteIntArray*)&g0::quant8_zero, 0 };
const MODEL_SECTION(EI_MODEL_SECTION) ALIGN(16) int8_t tensor_data15[16*1*1*96] = { 
  /* [0][0][][] */ 17,36,-2,35,-32,-82,-44,-5,-33,-96,17,41,71,-77,29,49,-85,-29,38,16,107,-13,-62,46,20,83,98,63,-3,66,40,-31,44,15,42,-48,18,24,-34,-4,127,32,42,-25,-11,21,46,-17,37,-32,90,8,-32,4,49,15,-29,-47,5,17,-11,55,-47,-22,44,6,93,8,-6,-43,16,6,14,23,34,34,87,-27,64,26,-23,26,30,12,-39,7,-15,40,27,37,-92,-2,26,-4,107,100, 
  /* [1][0][][] */ -16,23,-34,-43,-32,-34,65,-32,-48,-69,-37,-14,8,-36,3,-10,-23,-18,-29,-8,-17,-35,85,22,7,5,-19,62,-56,-1,-36,66,14,8,26,-19,-3,30,-12,40,19,19,43,-47,38,-45,4,28,-63,36,29,-67,-33,38,59,39,38,0,-46,11,-45,17,22,-11,37,10,38,-3,-46,-127,-23,50,24,47,-2,24,-53,-35,62,-27,17,-27,25,-57,-22,-34,-1,4,-39,-27,15,-7,76,-40,-13,52, 
  /* [2][0][][] */ -13,-45,-16,-18,72,62,-24,13,-55,-2,34,-5,30,4,53,86,25,-5,-127,-5,-32,-57,9,12,35,-6,-35,8,-63,-48,7,70,-23,-37,-30,-11,-57,8,-2,-24,72,12,19,46,22,88,32,-19,-65,-53,-25,24,-17,53,43,-76,25,0,14,14,-56,-40,13,57,47,9,-16,-32,-49,-9,-46,-83,12,61,30,85,-81,-22,-14,-62,39,32,22,-46,-28,-54,-24,-52,8,-18,-21,66,24,2,109,-20, 
  /* [3][0][][] */ 21,-65,-39,-84,-26,-35,124,-13,10,75,-80,-4,9,-20,-29,93,73,68,-15,34,-21,22,17,39,-47,83,31,-7,-23,-12,-59,68,20,-12,53,-37,-3,-56,-9,47,14,32,-20,38,67,-27,43,33,61,-47,20,-16,125,57,55,-15,-7,-7,-51,-27,-38,33,72,-6,-3,-28,123,-49,-69,-52,-48,12,60,-53,24,-59,16,-67,127,-19,-18,-12,-50,-42,-14,-41,57,63,-31,63,-59,16,23,-70,-15,58, 
  /* [4][0][][] */ -48,42,71,-22,-34,25,-32,-36,-2,-43,25,-17,49,44,-10,43,16,-85,-26,-98,55,-33,-75,51,-20,-35,-11,26,-43,127,-50,-35,11,-19,18,-47,36,46,-55,-15,9,31,63,-25,-58,3,93,-18,47,-27,-78,21,-60,12,43,-6,-10,57,-7,30,2,-46,1,12,66,-21,-57,-16,17,14,3,-56,6,79,107,83,-30,2,-49,23,12,71,27,-89,74,-85,-12,-43,-61,-42,-55,-17,24,-7,43,-26, 
  /* [5][0][][] */ -8,-32,62,-12,-62,-27,-54,-28,56,16,-25,18,-22,-64,41,-13,-33,7,-82,-37,-54,7,-22,7,12,-92,75,-60,-29,37,-2,100,6,-104,18,6,-29,-19,-3,-11,-79,9,0,25,-13,32,-44,33,-3,36,45,-37,45,-78,-18,70,-39,-91,9,-55,39,55,18,63,-32,45,119,-30,-24,-51,42,10,-27,14,58,7,19,0,127,62,-15,-6,6,60,57,76,22,104,3,-30,-23,30,-22,-45,-35,10, 
  /* [6][0][][] */ -21,-97,28,5,-37,94,-45,-73,1,-72,-65,53,-6,-10,-19,76,-2,21,35,-42,-125,7,-44,-75,-3,-71,24,59,-71,51,6,-13,11,91,-54,-20,-15,-6,61,-97,-47,40,28,-9,8,60,2,55,20,-47,-62,-77,79,19,-42,-24,23,-25,29,-19,5,-72,12,48,79,-46,-86,-34,-127,21,-19,-68,-13,-63,53,-59,62,29,-82,-5,-20,105,17,-64,56,-63,-5,16,-37,62,-67,104,31,-72,66,-106, 
  /* [7][0][][] */ -1,-55,-74,25,-48,19,0,-51,-127,-25,96,39,-5,-99,2,-28,-36,8,0,-14,-97,8,-53,-28,118,72,7,61,-33,32,72,42,-78,-122,47,126,-28,55,-14,35,-12,-41,43,-93,11,41,21,92,-26,67,-35,18,24,-85,50,-14,-14,16,-16,-24,30,-24,-5,-71,20,-35,109,-4,-5,1,73,-23,-57,-57,-76,-35,29,-46,100,-55,31,-57,-25,-66,6,-49,-72,32,9,17,-5,77,62,-1,119,-29, 
  /* [8][0][][] */ -24,-92,39,14,2,-4,19,-17,-14,-11,88,67,48,35,-34,5,95,17,12,22,1,-98,-40,-27,-16,-44,89,6,-14,42,-4,-44,-30,10,16,-34,-58,-30,29,-63,-2,64,65,-80,3,-5,57,2,46,-44,29,0,6,4,-41,-32,-47,92,-54,1,1,-53,-78,11,-112,-66,-16,5,-29,29,50,-51,-14,-127,54,-113,27,-4,-54,-1,-44,16,-33,48,93,-81,-44,63,-19,114,18,-45,-65,-23,11,-62, 
  /* [9][0][][] */ -18,-35,-18,6,37,62,54,44,-40,-6,67,73,-50,94,37,-52,7,-8,-29,-41,4,89,8,44,-51,31,17,59,78,14,41,1,-28,-1,44,60,-20,-1,-19,-28,9,-48,-11,4,-16,87,-24,-9,-56,-4,25,67,110,28,10,-64,16,18,46,53,-9,7,94,-2,-1,2,38,8,72,16,-80,56,23,-102,-35,-127,-74,-37,22,-31,-50,17,-37,-50,12,3,-65,0,-29,108,59,44,77,49,-23,36, 
  /* [10][0][][] */ 37,67,-13,12,-15,42,-58,-21,85,19,-45,8,16,47,-10,-61,-31,28,-7,4,6,-10,-35,-63,-3,-13,-107,45,-22,40,-17,5,7,12,-16,52,39,6,5,-1,56,0,52,-68,-44,-14,-5,17,35,1,11,-77,-62,-23,32,56,-24,-7,-2,7,-43,-59,-27,1,-12,-13,-117,-38,-42,-3,27,-25,-3,52,2,37,37,6,-126,8,-33,16,4,-6,-4,33,-86,-127,-19,13,1,-21,41,-24,41,39, 
  /* [11][0][][] */ 8,-82,1,10,-31,43,60,11,48,-25,-30,-37,0,7,8,-43,-38,64,33,-69,0,92,26,-42,66,13,35,-6,53,-28,-16,39,17,123,-73,27,4,-16,79,-51,-45,48,-26,59,-41,-4,-17,-40,26,-12,-3,3,-27,15,-40,60,-3,21,8,-14,64,2,-3,-60,-13,-33,-127,-61,28,-21,-116,27,69,-17,-19,-5,24,20,-125,-40,-33,-11,-11,9,-57,-12,44,38,-9,-60,18,14,-19,39,89,102, 
  /* [12][0][][] */ 1,9,-41,-23,-16,-30,9,50,69,-50,25,10,7,-20,0,36,54,6,-28,33,3,64,11,94,-26,-46,-127,-24,71,-35,41,16,-10,-79,86,-15,16,-36,-1,7,-1,-45,49,33,9,13,23,-34,-58,3,-49,79,85,-15,39,-77,17,10,-32,-19,15,65,84,27,-12,-5,18,4,77,4,21,-1,30,6,-4,1,-29,-72,19,-57,1,-54,-31,-42,-20,-5,16,-104,-1,21,-35,5,21,56,-1,70, 
  /* [13][0][][] */ -7,-8,-74,14,5,25,1,-3,13,46,-57,-1,-73,-32,49,-55,-22,47,86,-9,-35,-32,24,47,35,55,-12,31,35,44,95,4,-19,64,-24,68,40,-18,-23,-14,-20,-22,22,32,33,29,-45,55,-49,66,11,14,-38,-28,31,72,28,-45,-12,7,34,-7,18,-54,26,127,101,56,29,-2,-48,10,5,42,-61,10,21,-36,88,-33,11,-71,71,12,-11,34,-31,-32,-50,-25,6,81,19,47,62,25, 
  /* [14][0][][] */ -11,51,3,52,-47,-53,10,37,-41,-39,68,30,-60,-15,60,6,-17,55,-61,37,-8,34,-103,-1,-25,15,-43,-81,-1,-6,14,71,-34,36,48,-71,-25,-81,-20,-43,32,-27,11,-22,-23,66,-75,38,-5,-36,65,30,11,18,-4,-3,-45,5,-13,23,42,74,1,23,12,-39,20,-74,-9,63,58,19,-61,38,23,3,45,-29,50,13,-56,127,-51,-109,73,-10,-4,3,-60,20,-28,-5,-28,4,40,32, 
  /* [15][0][][] */ 75,-16,46,9,46,-9,-10,7,27,47,-89,-27,44,100,-11,-18,4,11,-77,46,-8,3,21,3,58,-31,68,25,25,-31,-27,45,39,31,-16,-38,52,43,67,68,89,30,-14,5,-47,-127,1,-67,-34,-3,-8,-20,-13,-59,-60,54,11,26,-25,24,0,-44,-35,52,30,54,-78,50,10,-23,8,9,14,-123,-49,-115,-40,27,-123,72,70,-44,52,39,-60,3,-3,-31,22,68,27,-69,-45,-19,18,-45, 
};
const TfArray<16, float> quant15_scale = { 16, { 0.0037646950222551823, 0.0039456887170672417, 0.0032385715749114752, 0.0028689135797321796, 0.0047615291550755501, 0.0043017109856009483, 0.0030047204345464706, 0.0028075042646378279, 0.0045230644755065441, 0.003406458767130971, 0.0036155851557850838, 0.0036979983560740948, 0.0044321073219180107, 0.0050184591673314571, 0.003207680769264698, 0.0035062779206782579, } };
const TfLiteAffineQuantization quant15 = { (TfLiteFloatArray*)&quant15_scale, (TfLiteIntArray*)&g0::quant8_zero, 0 };
const MODEL_SECTION(EI_MODEL_SECTION) ALIGN(16) int32_t tensor_data16[96] = { 8718, 2463, -8747, 8922, -4800, -1220, -497, -5191, 3661, -1250, -2582, -4956, 7475, -9800, -114, -9152, 534, -3432, -8423, -2708, -3285, 252, -9136, -3079, 437, 12672, -11170, -3844, -2435, -3495, 8412, 351, 16100, -1905, -1848, -1210, 351, 10664, 2181, 18630, 2585, 6163, 329, 4822, 2915, 937, 6793, 2053, -19021, 604, -5514, 5238, -4030, -3880, -1616, 3728, 1697, 3514, 1096, 3647, 2440, 2649, -1314, 5268, 16789, 1709, 19606, 12336, -1017, -3561, 8169, -2041, -654, 4768, -11217, 3979, 16168, 14810, 10501, 19407, 10453, -3619, 11318, 13106, -1664, 633, 10788, -7195, 12546, -1006, -9265, 1734, -253, -145, 16837, -2459, };
const TfArray<96, float> quant16_scale = { 96, { 0.00012810599582735449, 0.0002374602627241984, 9.5190065621864051e-05, 0.00010455719166202471, 0.00019500247435644269, 0.00062741659348830581, 0.00012285847333259881, 0.00016466353554278612, 0.00026031630113720894, 0.00031004665652289987, 0.00026277615688741207, 0.00017805752577260137, 9.3180402473080903e-05, 7.6419113611336797e-05, 0.00019829069788102061, 0.00015057928976602852, 0.00027487892657518387, 0.00023236035485751927, 0.00013977337221149355, 0.00044966893619857728, 0.00025634316261857748, 0.00020188251801300794, 7.7282893471419811e-05, 0.00020562642021104693, 0.0008785650716163218, 0.00012608275574166328, 0.00019035844889003783, 0.00017305134679190814, 0.00026093493215739727, 0.00015922306920401752, 0.00015788349264767021, 0.00038485071854665875, 6.6470027377363294e-05, 0.0003903743636328727, 0.00019429593521635979, 0.00021957670105621219, 0.00025081404601223767, 9.7217074653599411e-05, 0.00023872916062828153, 7.9939643910620362e-05, 0.00033180744503624737, 0.00017714337445795536, 0.00027629485703073442, 0.00021548384393099695, 0.00018154586723539978, 0.00028232662589289248, 0.00019653604249469936, 0.00028659304371103644, 7.1174807089846581e-05, 0.00071663514245301485, 0.00018573729903437197, 0.00016969228454399854, 0.0001334524858975783, 0.00022839101438876241, 0.00028031220426782966, 0.00026625976897776127, 0.00012557271111290902, 0.00030825519934296608, 0.00028358699637465179, 0.00014484918210655451, 0.00020106484589632601, 0.00037434979458339512, 0.00019199636881239712, 0.00014372992154676467, 0.00018893499509431422, 0.00046109419781714678, 9.398232214152813e-05, 0.00011846134293591604, 0.00022758482373319566, 0.00027356634382158518, 0.00014315402950160205, 0.00021493708482012153, 0.0002645068452693522, 0.00015422276919707656, 7.0597139711026102e-05, 0.00018302426906302571, 9.1018155217170715e-05, 0.00011490774340927601, 0.00011788256233558059, 0.00010230483894702047, 0.00010047076648334041, 0.00025399067089892924, 0.00010891129932133481, 0.00021132059919182211, 0.00011453201295807958, 0.00027428360772319138, 0.00011534592340467498, 0.00021822041890118271, 9.1730173153337091e-05, 0.00018103148613590747, 9.8194359452463686e-05, 0.00018919123976957053, 0.00031842821044847369, 0.00013279437553137541, 9.9717079137917608e-05, 0.00027033235528506339, } };
const TfLiteAffineQuantization quant16 = { (TfLiteFloatArray*)&quant16_scale, (TfLiteIntArray*)&g0::quant6_zero, 0 };
const MODEL_SECTION(EI_MODEL_SECTION) ALIGN(16) int8_t tensor_data17[1*3*3*96] = { 
  /* [0][0][][] */ -7,11,76,-49,116,-2,25,16,2,-35,-5,-13,-127,60,-5,74,-16,49,36,-17,-5,56,-6,78,15,-35,-21,18,18,7,33,-15,-12,11,-18,-32,-6,-74,-12,-42,-7,-22,23,-31,-14,54,-69,-2,23,10,-14,69,-64,22,30,-36,-94,-21,13,18,-29,-23,3,-46,-45,-54,-48,-25,-28,62,-25,32,119,1,49,-21,-69,21,127,-122,-127,29,-127,-22,-9,-31,16,23,1,3,-16,-85,9,76,3,-4, 44,43,96,-127,27,7,48,-43,-20,-43,-72,38,-74,74,-89,45,4,84,127,-42,-8,127,89,106,38,-6,48,127,127,37,127,-48,-54,8,-76,-10,-13,4,127,5,-17,-91,-39,-31,52,-34,-27,56,127,-16,34,109,-76,29,-62,-23,-68,-2,-34,61,-27,-127,-127,-32,-25,13,2,-127,-23,29,-2,107,-126,-41,56,-47,-127,-127,-16,-127,-77,-1,-1,-96,127,100,-109,12,-127,-10,80,27,15,120,6,-101, -45,17,57,-63,94,3,30,40,-24,-35,-4,55,-70,72,-13,68,-10,47,-2,-19,-9,36,7,50,9,-32,-12,-23,16,13,-26,-18,-15,3,-25,51,-9,-68,2,-109,20,-55,27,-21,-23,-27,-61,-11,51,-8,-12,33,33,46,35,-11,116,-22,-11,13,-25,-21,-53,8,-55,-60,104,-39,-26,67,-45,24,127,-12,105,21,-115,29,-58,-121,-26,36,-113,-29,4,-30,32,-19,-41,-30,-12,53,-12,28,0,5, 
  /* [0][1][][] */ -50,-12,127,2,28,89,-6,-36,8,-52,2,-22,-96,93,3,114,-11,52,75,49,25,-14,99,13,16,-1,82,-15,-5,9,-50,-16,-49,-3,60,-31,-3,-83,-60,-98,-29,10,81,-42,-75,127,-43,-108,106,65,21,-70,-87,103,48,-26,-35,-34,27,-5,-34,-15,101,-127,-80,6,-23,-62,-20,2,-96,25,98,127,66,-127,-87,-38,-73,-87,-89,1,-56,-45,18,11,-127,34,-103,127,73,-127,127,13,-54,17, 76,102,19,122,-127,-127,65,-60,127,67,-85,-66,-35,127,-24,3,127,-127,67,127,127,-73,127,-127,-127,-127,127,81,-92,127,-66,127,-19,127,127,-83,127,59,-1,-34,127,-32,-127,-56,127,-23,127,127,119,-127,127,-127,127,127,-127,127,-88,127,-127,127,-77,87,74,-74,103,127,-25,94,-93,-127,27,-127,21,94,127,42,65,-121,107,-66,6,127,31,127,70,80,-78,127,-89,43,-9,16,-86,-28,-127,5, -127,-18,100,-32,21,75,-36,20,-36,-81,22,127,-116,93,21,127,-27,69,52,40,28,-26,102,6,17,-2,8,-38,12,-23,-32,-23,-21,-32,83,127,8,-60,-81,-127,-4,-6,55,-41,-40,-84,-42,-118,76,76,20,-58,119,12,87,-34,127,-25,33,-29,-9,-27,-75,-64,-127,-23,-79,-78,-24,8,-127,10,62,-116,64,112,-67,-58,-51,-39,-36,5,-84,-61,1,19,-68,39,-65,-65,127,118,-59,-34,-70,2, 
  /* [0][2][][] */ -14,-82,-4,4,31,4,49,72,-4,37,70,-18,71,33,-24,-19,-39,-9,-15,-26,10,-33,14,-1,-19,-37,25,-1,-6,-4,-25,22,-127,0,6,-58,-20,-127,-10,-69,-67,28,21,6,-12,-2,-80,-29,28,-20,-29,-27,21,-66,36,-47,-47,-35,1,-57,-59,9,3,46,-48,-24,127,28,61,39,30,-18,-47,-10,-5,-33,-5,-18,-47,-48,-68,21,-77,-33,56,-31,30,-13,33,7,-2,-86,-18,-23,-77,13, -46,-127,27,-85,-28,-4,127,127,-64,127,127,-32,72,52,127,52,-14,-36,31,-50,-5,-72,106,8,7,-45,57,13,-14,9,-119,-25,-108,-18,-112,-22,-98,-65,27,-34,-66,-127,-44,127,16,-30,6,-2,102,-18,14,-38,66,-1,-47,-61,-86,-37,45,-117,127,32,63,37,-76,-24,-13,-43,127,28,-90,19,49,-40,99,-29,12,-118,25,38,31,-2,0,-123,76,-127,-18,27,-10,9,88,-9,3,-127,-42,127, -69,-11,-9,-21,33,9,59,18,-33,31,46,51,103,38,-9,9,-37,15,-27,-26,14,-28,-12,18,-21,-26,-38,-27,-13,-3,-76,5,-20,-3,4,48,-11,-50,-19,-82,-57,-16,5,17,-22,-21,-63,-14,41,-21,-5,-49,-6,-56,44,-21,30,-19,10,-66,4,18,25,58,-27,-30,-51,32,25,33,-33,-7,-64,-69,35,-4,-22,-46,102,9,-29,15,-50,-36,30,-26,12,16,3,14,-9,16,13,-43,-32,-3, 
};
const TfArray<96, float> quant17_scale = { 96, { 0.0056025977246463299, 0.010385105386376381, 0.0041630496270954609, 0.0045727123506367207, 0.0085282530635595322, 0.027439486235380173, 0.005373101681470871, 0.0072014080360531807, 0.011384692974388599, 0.013559604063630104, 0.011492272838950157, 0.0077871815301477909, 0.004075158853083849, 0.0033421192783862352, 0.0086720604449510574, 0.0065854461863636971, 0.012021576054394245, 0.010162065736949444, 0.0061128591187298298, 0.019665855914354324, 0.011210931465029716, 0.0088291456922888756, 0.0033798960503190756, 0.0089928815141320229, 0.038423232734203339, 0.0055141127668321133, 0.0083251511678099632, 0.0075682406313717365, 0.011411747895181179, 0.0069634737446904182, 0.0069048888981342316, 0.016831090673804283, 0.00290700513869524, 0.017072662711143494, 0.0084973536431789398, 0.0096029844135046005, 0.010969121009111404, 0.0042516989633440971, 0.010440599173307419, 0.0034960864577442408, 0.014511292800307274, 0.007747202180325985, 0.012083500623703003, 0.0094239870086312294, 0.0079397410154342651, 0.012347294948995113, 0.0085953222587704659, 0.012533882632851601, 0.0031127643305808306, 0.031341377645730972, 0.0081230495125055313, 0.0074213356710970402, 0.0058364211581647396, 0.0099884700030088425, 0.012259195558726788, 0.011644625104963779, 0.0054918066598474979, 0.013481256552040577, 0.01240241527557373, 0.0063348449766635895, 0.0087933856993913651, 0.016371842473745346, 0.0083967838436365128, 0.0062858951278030872, 0.0082628978416323662, 0.020165529102087021, 0.0041102301329374313, 0.0051807975396513939, 0.0099532119929790497, 0.011964171193540096, 0.0062607093714177608, 0.009400075301527977, 0.011567963287234306, 0.006744790356606245, 0.0030875005759298801, 0.0080043971538543701, 0.0039805951528251171, 0.0050253840163350105, 0.0051554851233959198, 0.0044742077589035034, 0.0043939962051808834, 0.01110804732888937, 0.0047631352208554745, 0.0092419115826487541, 0.005008951760828495, 0.011995540931820869, 0.0050445473752915859, 0.0095436684787273407, 0.0040117343887686729, 0.0079172449186444283, 0.004294439684599638, 0.0082741044461727142, 0.013926164247095585, 0.0058076395653188229, 0.0043610343709588051, 0.011822735890746117, } };
const TfLiteAffineQuantization quant17 = { (TfLiteFloatArray*)&quant17_scale, (TfLiteIntArray*)&g0::quant6_zero, 3 };
const MODEL_SECTION(EI_MODEL_SECTION) ALIGN(16) int32_t tensor_data18[96] = { 2007, 6858, -326, 1435, 7137, 15112, -33, 2052, 9856, -1883, 20087, 3673, 1201, -50, 4145, 1183, 1379, 4925, -698, 20193, 1255, 9700, -970, 1910, -8541, 1268, 2995, 2298, 4550, 1849, 6391, 5704, 1642, 15960, 6218, 4351, 2942, 1802, 4563, 1510, 28158, 1379, 4552, -608, 3394, 16411, 8245, 6804, 1237, -2492, 1785, 11349, 2717, -4070, 5132, 149, 2241, 12524, 1025, 2443, 3512, 20038, 4448, -430, 13533, 16674, 1865, 4800, 4932, 1512, 3322, 1981, -3294, 5947, 346, 5187, 745, 5647, 4983, 7103, 3473, 2925, 3290, 14700, -659, 9143, 6772, 2042, -212, 1298, 1143, 10019, 5424, 2448, 4746, 4844, };
const TfArray<96, float> quant18_scale = { 96, { 0.00020346957899164408, 0.00011261027248110622, 0.0001881768403109163, 0.00022786602494306862, 0.0001192503041238524, 6.4602121710777283e-05, 0.00029493606416508555, 0.00016854771820362657, 9.2380490968935192e-05, 0.00017037123325280845, 4.888206603936851e-05, 0.00011817577615147457, 0.00022495698067359626, 0.00041587097803130746, 0.00013883571955375373, 0.00015894437092356384, 0.0003122413472738117, 0.00012636241444852203, 0.0001574493944644928, 5.4650474339723587e-05, 0.00016392768884543329, 8.6978594481479377e-05, 0.0001613008207641542, 0.00015757833898533136, 7.6258853368926793e-05, 0.00016031805716920644, 0.00020151905482634902, 0.0001813198032323271, 0.00016226638399530202, 0.00016718791448511183, 0.00012072177923982963, 0.0001065718533936888, 0.0002071064809570089, 5.5077664001146331e-05, 9.817704267334193e-05, 0.00016173881886061281, 0.00019213039195165038, 0.00024646712699905038, 0.00013564262189902365, 0.00018678567721508443, 3.956785803893581e-05, 0.00019586634880397469, 0.00013125913392286748, 0.00017941650003194809, 0.00012880250869784504, 5.5023396271280944e-05, 9.4739807536825538e-05, 0.00012579996837303042, 0.00024905038299039006, 0.00017092406051233411, 0.00022322661243379116, 7.2890143201220781e-05, 0.00016900004993658513, 0.0001138311781687662, 0.00012939270527567714, 0.00027938230778090656, 0.0001741073647281155, 7.2600792918819934e-05, 0.00017742808267939836, 0.00016928852710407227, 0.00011787472612923011, 5.314473673934117e-05, 0.00015916078700684011, 0.00019426339713390917, 7.4250972829759121e-05, 5.2807012252742425e-05, 0.00026488420553505421, 0.00013076004688628018, 0.00014802362420596182, 0.00023407526896335185, 0.00015596870798617601, 0.00013373482215683907, 0.00016280586714856327, 0.00013881252380087972, 0.00026569896726869047, 0.0001505086402175948, 0.00024266744730994105, 0.00013402839249465615, 0.00014888009172864258, 0.00011985194578301162, 0.00013069580018054694, 0.00014217619900591671, 0.00015116432041395456, 6.2626582803204656e-05, 0.00016211095498874784, 8.7487445853184909e-05, 0.00010548069258220494, 0.00025069370167329907, 0.00024403714633081108, 0.00029002004885114729, 0.00019216396322008222, 8.5888575995340943e-05, 0.00011022089165635407, 0.00015471210645046085, 0.00013039830082561821, 0.00014125429152045399, } };
const TfLiteAffineQuantization quant18 = { (TfLiteFloatArray*)&quant18_scale, (TfLiteIntArray*)&g0::quant6_zero, 0 };
const MODEL_SECTION(EI_MODEL_SECTION) ALIGN(16) int8_t tensor_data19[96*1*1*16] = { 
  /* [0][0][][] */ 22,-5,17,74,-127,-28,118,57,105,37,-34,11,1,32,14,89, 
  /* [1][0][][] */ -73,-12,-58,12,111,51,-2,-2,-17,21,-58,30,-57,127,-47,6, 
  /* [2][0][][] */ -73,52,57,23,104,127,13,7,32,-23,14,-51,90,-118,-18,39, 
  /* [3][0][][] */ 127,1,3,21,42,19,29,-23,-17,15,-66,-2,-34,28,-2,44, 
  /* [4][0][][] */ -70,7,30,-33,-108,1,-68,-15,-33,63,-51,-5,22,58,-11,127, 
  /* [5][0][][] */ -127,18,10,-53,68,-7,8,42,-44,32,-20,36,-61,75,-90,-28, 
  /* [6][0][][] */ -127,18,-33,32,-28,-85,87,15,-10,-58,-48,48,34,22,-78,-8, 
  /* [7][0][][] */ 13,118,70,-67,62,58,127,-9,-31,-11,29,54,100,-41,-41,-62, 
  /* [8][0][][] */ -15,-16,-55,80,-45,42,-36,-46,39,-21,82,6,54,34,-127,-17, 
  /* [9][0][][] */ -53,-127,-39,56,-23,-53,-36,20,26,37,-31,34,-44,52,-16,-32, 
  /* [10][0][][] */ -127,-57,-89,60,-107,57,10,-70,5,-67,56,-29,24,117,-60,51, 
  /* [11][0][][] */ -21,-28,-47,62,-45,61,40,-58,-74,38,26,-111,4,127,-97,116, 
  /* [12][0][][] */ -80,-28,-127,88,-72,-54,16,33,25,53,-24,84,-9,-39,22,69, 
  /* [13][0][][] */ -43,-9,-51,11,-21,-8,6,17,-23,127,0,-7,19,-1,-10,-15, 
  /* [14][0][][] */ -127,-11,-43,-70,-28,31,-45,-61,79,-11,86,-19,28,-81,-47,-40, 
  /* [15][0][][] */ -7,-108,127,-43,-64,-63,2,73,-50,-42,-66,-77,65,-2,-26,-13, 
  /* [16][0][][] */ -2,-33,-8,-46,3,22,-18,-4,23,-127,61,7,-9,-25,-43,-57, 
  /* [17][0][][] */ -30,2,18,-32,10,-25,-80,46,90,-60,45,105,119,-62,25,-127, 
  /* [18][0][][] */ 14,-7,-42,-127,17,-1,69,-59,28,69,-42,66,25,7,-25,-119, 
  /* [19][0][][] */ 26,-24,-13,-21,-90,27,-9,4,89,-49,8,-127,-15,-32,-64,-50, 
  /* [20][0][][] */ 19,77,88,-91,46,-14,-48,95,-103,-109,36,-66,-12,127,-48,7, 
  /* [21][0][][] */ 36,-73,-94,-15,127,55,74,62,-24,-65,-77,28,122,-73,18,18, 
  /* [22][0][][] */ 45,-29,2,-45,14,44,44,-13,50,127,-2,82,27,-71,43,-64, 
  /* [23][0][][] */ -92,-79,20,127,47,38,-12,-39,5,5,-18,-56,23,123,-12,68, 
  /* [24][0][][] */ 13,-41,51,46,2,-100,-3,-33,6,127,-108,36,-34,-87,74,-112, 
  /* [25][0][][] */ 95,-42,93,61,-5,-84,-1,62,-127,22,15,-82,6,77,118,24, 
  /* [26][0][][] */ -17,30,15,56,-47,97,-9,33,-54,-35,-75,47,13,18,42,-127, 
  /* [27][0][][] */ 13,19,3,-40,-21,-10,-127,-4,-94,2,-91,-10,-78,97,-34,109, 
  /* [28][0][][] */ -51,17,8,6,22,-24,-127,-27,-7,13,-10,2,3,-19,-29,-14, 
  /* [29][0][][] */ -21,-94,-16,107,-50,-10,127,-31,36,61,-122,50,37,-35,-46,82, 
  /* [30][0][][] */ 14,-20,-58,48,-127,-8,12,5,15,15,17,-17,-63,22,45,65, 
  /* [31][0][][] */ -127,-5,-5,49,-31,21,-63,-2,-11,-3,-4,-89,-62,-93,-84,75, 
  /* [32][0][][] */ -109,-58,-126,-28,-127,-36,5,0,81,32,-36,-49,21,28,20,7, 
  /* [33][0][][] */ -22,57,-109,33,-127,-73,65,-9,-124,9,-57,-95,-9,73,18,92, 
  /* [34][0][][] */ 31,85,-10,16,-127,-50,62,-5,-47,-92,-29,23,-9,9,38,98, 
  /* [35][0][][] */ 47,-27,-60,5,-127,-18,87,-8,-47,71,-17,40,5,117,51,40, 
  /* [36][0][][] */ -6,-42,-64,93,114,-58,50,78,-62,24,-101,-127,-4,-59,35,2, 
  /* [37][0][][] */ -101,68,-9,-91,10,-127,-33,-8,-14,-48,-29,48,69,-33,55,-80, 
  /* [38][0][][] */ 11,43,-3,-20,-127,-63,-86,-25,-19,-70,1,25,-1,-93,37,-10, 
  /* [39][0][][] */ -28,-56,-19,87,-12,98,41,-42,-82,44,29,1,-21,127,26,119, 
  /* [40][0][][] */ 84,41,56,57,-59,6,52,-1,-127,25,6,-25,-10,10,104,20, 
  /* [41][0][][] */ -33,4,30,38,-117,127,34,81,-72,14,-126,-49,6,14,64,-119, 
  /* [42][0][][] */ -26,-56,19,10,127,31,67,1,-43,-41,-54,-16,17,9,-31,28, 
  /* [43][0][][] */ -62,-40,-24,59,101,4,-12,59,-97,-17,-93,-49,127,-4,-65,52, 
  /* [44][0][][] */ -58,-19,-53,-68,15,61,2,-27,-64,-73,-71,77,-25,6,64,127, 
  /* [45][0][][] */ -48,3,-127,-68,-87,60,-67,-124,44,27,28,-23,-30,67,-101,103, 
  /* [46][0][][] */ 86,-43,-8,-102,40,-71,45,123,-84,-77,56,13,-52,-56,127,-75, 
  /* [47][0][][] */ -47,-34,-26,71,18,-5,-29,-7,-13,127,1,34,13,-8,-14,48, 
  /* [48][0][][] */ 47,-11,-64,-100,16,-76,-7,65,25,-64,2,20,-60,3,-47,-127, 
  /* [49][0][][] */ 74,11,-18,50,3,-35,65,54,-37,127,-43,55,-51,31,73,81, 
  /* [50][0][][] */ 9,-10,15,28,-127,-34,-20,-29,49,22,17,63,-28,-33,25,-7, 
  /* [51][0][][] */ -20,-48,-10,-127,-79,90,17,48,52,-75,70,-90,65,63,-10,40, 
  /* [52][0][][] */ 16,6,-41,-114,73,-127,-13,-62,18,33,125,-71,17,23,-45,74, 
  /* [53][0][][] */ -37,-52,34,-28,-30,-106,-5,-116,-12,127,-68,98,-74,-8,26,-44, 
  /* [54][0][][] */ 63,35,39,-7,-127,-62,-76,-94,-26,31,45,68,-39,-51,25,-4, 
  /* [55][0][][] */ 6,-31,-49,39,-13,29,16,-11,22,127,7,26,-4,-29,-8,8, 
  /* [56][0][][] */ 24,-127,37,39,-113,-3,14,51,66,-22,41,53,-40,-51,52,41, 
  /* [57][0][][] */ 112,25,106,-92,71,79,20,66,64,-127,119,126,79,39,71,-37, 
  /* [58][0][][] */ 56,-67,4,-39,-2,-17,-48,127,-10,83,20,71,38,11,80,14, 
  /* [59][0][][] */ -68,-3,59,-73,-25,-73,-7,79,40,-9,-127,-112,-123,-41,9,-7, 
  /* [60][0][][] */ 53,-37,78,-20,-7,-42,25,-22,10,127,-34,13,26,-23,-39,-78, 
  /* [61][0][][] */ 71,66,17,-8,-108,-127,-28,-31,-59,-6,-30,8,-29,-59,-1,4, 
  /* [62][0][][] */ -6,55,-37,16,-43,127,-43,52,-71,28,-69,39,-115,13,71,-112, 
  /* [63][0][][] */ -9,-18,-50,-127,-5,-32,56,-30,2,-85,-41,23,-3,105,-13,-12, 
  /* [64][0][][] */ -12,1,-21,-2,32,-19,-9,26,-127,-5,-53,-57,11,26,69,55, 
  /* [65][0][][] */ -46,57,-80,-71,17,-16,-52,-65,-127,0,-28,-92,-119,116,-49,48, 
  /* [66][0][][] */ -21,63,-12,38,-35,127,-27,18,-69,6,-21,27,-26,34,43,-84, 
  /* [67][0][][] */ 9,-18,-30,14,20,-44,27,-92,5,23,49,100,-35,-28,-39,-127, 
  /* [68][0][][] */ 39,-79,-24,40,9,-20,81,113,53,48,50,-22,-70,127,-8,19, 
  /* [69][0][][] */ 11,28,18,-127,-32,-5,-52,16,-20,65,60,95,38,-38,50,-64, 
  /* [70][0][][] */ 23,85,6,-34,85,10,-98,-108,-127,-73,-8,31,-25,77,-113,-8, 
  /* [71][0][][] */ 34,17,8,-48,50,6,68,16,-119,21,-127,-87,52,64,-11,103, 
  /* [72][0][][] */ -7,-5,40,-5,-78,-52,-127,-81,8,54,-36,-18,-13,91,-74,-11, 
  /* [73][0][][] */ -15,-13,-28,-43,24,-107,23,-30,59,81,79,-22,1,5,-22,127, 
  /* [74][0][][] */ 7,8,-21,94,-62,-26,76,20,58,53,26,100,127,16,-34,8, 
  /* [75][0][][] */ -49,64,-44,39,-68,127,-12,15,-59,45,-37,43,-51,74,40,-66, 
  /* [76][0][][] */ -44,91,-40,37,-76,-62,-13,24,66,86,-127,-35,30,-26,-85,43, 
  /* [77][0][][] */ 88,127,-60,95,38,39,54,62,20,1,82,-31,23,35,31,21, 
  /* [78][0][][] */ 8,-33,-4,-64,58,-93,26,-52,27,39,127,-43,2,-32,-40,111, 
  /* [79][0][][] */ -37,43,-10,41,14,-36,-61,-4,-127,17,48,34,107,7,-91,-46, 
  /* [80][0][][] */ -127,35,73,7,95,78,-26,-110,-91,48,-16,-44,-31,-68,8,111, 
  /* [81][0][][] */ 73,54,-11,-28,2,-24,60,75,-127,101,-44,-24,-21,20,73,93, 
  /* [82][0][][] */ 23,68,-23,-55,-18,-10,90,-34,16,-31,-30,1,49,9,127,8, 
  /* [83][0][][] */ 13,6,10,44,22,-8,-16,-91,59,-9,121,67,18,-34,-87,-127, 
  /* [84][0][][] */ -127,-71,-30,-5,-47,96,48,-63,74,62,123,120,38,62,-123,3, 
  /* [85][0][][] */ 89,15,52,-73,67,-77,18,127,16,99,-52,41,-23,76,44,-2, 
  /* [86][0][][] */ -84,85,-43,-28,5,95,0,-8,80,57,127,-18,-40,-8,-24,-42, 
  /* [87][0][][] */ 18,-56,31,-33,47,-127,34,-31,28,-13,61,-26,39,-38,-22,68, 
  /* [88][0][][] */ -54,44,57,4,112,-24,16,5,-80,-55,79,-49,59,127,118,-76, 
  /* [89][0][][] */ -19,60,-19,10,-51,127,-37,1,-87,25,-58,13,-16,61,24,-74, 
  /* [90][0][][] */ 20,-59,-7,0,127,21,8,-4,12,-40,-89,-30,-18,-13,-44,29, 
  /* [91][0][][] */ -57,46,7,-13,-3,-5,-127,52,-75,18,-44,-62,-114,-122,-10,-8, 
  /* [92][0][][] */ 63,33,106,34,-125,-104,12,-5,-4,42,3,-6,-93,-127,36,-21, 
  /* [93][0][][] */ -23,-89,-86,19,-28,-44,-4,119,66,57,25,98,-72,127,6,-4, 
  /* [94][0][][] */ 53,-22,127,-14,19,-27,-13,51,5,64,-12,11,-2,8,86,3, 
  /* [95][0][][] */ -82,-51,-37,-30,127,-21,29,94,-62,24,-87,-65,-29,-1,-25,49, 
};
const TfArray<96, float> quant19_scale = { 96, { 0.0039531812071800232, 0.0021878888364881277, 0.0036560609005391598, 0.0044271764345467091, 0.0023168970365077257, 0.0012551454128697515, 0.0057302704080939293, 0.0032746894285082817, 0.0017948473105207086, 0.0033101183362305164, 0.00094972265651449561, 0.0022960202768445015, 0.0043706567957997322, 0.0080798976123332977, 0.0026974193751811981, 0.0030881073325872421, 0.0060664922930300236, 0.0024550773669034243, 0.0030590617097914219, 0.001061796210706234, 0.0031849276274442673, 0.0016898947069421411, 0.0031338904518634081, 0.0030615669675171375, 0.0014816223410889506, 0.0031147964764386415, 0.0039152847602963448, 0.0035228366032242775, 0.0031526503153145313, 0.0032482701353728771, 0.0023454860784113407, 0.0020705692004412413, 0.0040238420478999615, 0.0010700960410758853, 0.001907467725686729, 0.003142400411888957, 0.0037328738253563643, 0.0047885742969810963, 0.0026353811845183372, 0.0036290320567786694, 0.00076875824015587568, 0.0038054592441767454, 0.0025502149946987629, 0.0034858575090765953, 0.0025024854112416506, 0.0010690416675060987, 0.0018406860763207078, 0.0024441494606435299, 0.004838764201849699, 0.0033208590466529131, 0.0043370379135012627, 0.0014161721337586641, 0.0032834778539836407, 0.0022116096224635839, 0.0025139523204416037, 0.0054280785843729973, 0.0033827070146799088, 0.0014105504378676414, 0.0034472248516976833, 0.0032890825532376766, 0.002290171105414629, 0.0010325415059924126, 0.003092312254011631, 0.0037743158172816038, 0.001442611450329423, 0.0010259798727929592, 0.005146397277712822, 0.0025405182968825102, 0.0028759296983480453, 0.0045478148385882378, 0.0030302936211228371, 0.0025983147788792849, 0.0031631318852305412, 0.0026969686150550842, 0.0051622269675135612, 0.0029242108575999737, 0.0047147511504590511, 0.0026040184311568737, 0.0028925698716193438, 0.0023285862989723682, 0.0025392700918018818, 0.0027623209170997143, 0.0029369499534368515, 0.0012167629320174456, 0.0031496305018663406, 0.0016997810453176498, 0.0020493692718446255, 0.0048706922680139542, 0.0047413627617061138, 0.0056347576901316643, 0.0037335262168198824, 0.0016687167808413506, 0.0021414658986032009, 0.003005879232659936, 0.0025334898382425308, 0.0027444094885140657, } };
const TfLiteAffineQuantization quant19 = { (TfLiteFloatArray*)&quant19_scale, (TfLiteIntArray*)&g0::quant6_zero, 0 };
const MODEL_SECTION(EI_MODEL_SECTION) ALIGN(16) int32_t tensor_data20[16] = { -4685, 13477, -16917, 5500, 8376, -12364, -40492, -9746, -7474, 11185, -14495, -8543, 9330, -6632, -7512, 2457, };
const TfArray<16, float> quant20_scale = { 16, { 0.0001205570442834869, 0.00010571329039521515, 0.00015443052689079195, 0.00015351783076766878, 7.773225661367178e-05, 0.00011262956104474142, 8.6533596913795918e-05, 0.00013981855590827763, 6.5079722844529897e-05, 8.0974612501449883e-05, 0.00015380425611510873, 0.00013182873954065144, 0.00010857750748982653, 0.00010685881716199219, 0.00011683747288770974, 0.00010066095273941755, } };
const TfLiteAffineQuantization quant20 = { (TfLiteFloatArray*)&quant20_scale, (TfLiteIntArray*)&g0::quant8_zero, 0 };
const MODEL_SECTION(EI_MODEL_SECTION) ALIGN(16) int8_t tensor_data21[16*1*1*48] = { 
  /* [0][0][][] */ 0,43,15,-28,37,56,-31,34,-13,127,7,45,-25,36,-14,41,22,73,33,-62,-63,55,-15,31,61,50,37,35,-41,-47,-19,74,-11,7,-79,35,71,-112,-39,2,9,-2,80,-19,17,-40,-45,-21, 
  /* [1][0][][] */ -56,-16,-92,-41,3,84,-71,-6,-5,-41,-33,29,56,4,-25,-38,-19,-32,-7,17,-84,46,-116,-40,-54,-48,50,67,-1,-24,58,-61,-3,-49,-37,62,31,-52,127,-44,-31,18,-56,-29,48,50,47,23, 
  /* [2][0][][] */ -19,-10,44,-31,-22,-74,28,2,91,70,-60,9,100,-41,127,64,-73,-10,-14,22,69,-70,-33,-109,4,-10,33,-69,42,17,-28,15,21,-35,38,34,-56,11,-7,-38,29,30,61,-22,18,-68,83,-67, 
  /* [3][0][][] */ 42,-9,-29,-39,22,102,20,-30,74,-62,18,-22,-47,16,2,44,-43,-75,44,-127,-5,6,-24,-10,-44,88,123,56,-18,-36,34,53,58,-55,81,18,-35,-49,-6,59,19,6,-10,-1,29,22,-14,-19, 
  /* [4][0][][] */ 73,-13,8,-22,118,87,60,-10,48,-27,-92,34,63,-39,22,-12,-69,-92,-30,-103,-8,38,-13,-18,-82,127,-94,127,-51,-83,13,74,43,-30,36,-34,-4,27,-22,14,-27,-4,9,48,-33,106,-55,-55, 
  /* [5][0][][] */ 26,-11,-49,-11,-8,49,20,-48,58,33,39,87,50,-32,42,-5,-48,127,-29,34,11,-2,-73,0,28,-6,-74,-39,-18,37,28,-10,-54,-1,49,31,-52,24,-100,-9,97,-18,14,45,-36,5,-53,38, 
  /* [6][0][][] */ 32,45,21,64,29,-23,100,-65,-4,75,122,94,68,32,-66,52,58,-46,-97,76,55,-57,-54,70,-85,121,110,-12,108,34,-26,8,92,-78,-121,-11,89,22,-33,27,14,67,73,-69,81,127,43,8, 
  /* [7][0][][] */ -97,6,-7,39,-54,-43,21,43,53,127,-48,-69,-96,-1,-41,-9,-66,85,14,112,-45,13,18,20,-10,-69,-28,-71,34,33,-12,-3,-15,21,5,-24,-10,-53,107,4,13,33,18,-17,44,59,-20,-5, 
  /* [8][0][][] */ -15,-113,71,-88,84,-84,104,-59,-8,-126,17,-3,-37,5,32,31,-11,9,-41,116,15,69,-26,1,71,19,-75,-36,-126,-36,-71,-99,9,-99,-12,73,-15,39,112,40,34,20,93,127,-15,-92,-47,78, 
  /* [9][0][][] */ 42,-14,12,-37,39,82,-45,27,21,-39,-34,-24,-15,-16,89,-5,6,-112,35,31,-74,44,76,-23,-6,-90,-23,79,64,65,-52,-34,-55,37,-17,127,-36,-48,-47,-20,-9,-59,12,101,28,81,-78,21, 
  /* [10][0][][] */ -15,12,-30,-15,36,26,-55,-37,39,27,67,-15,-46,1,54,-58,-61,127,-2,55,7,-6,5,34,-51,40,9,90,24,13,-21,-10,52,18,-15,16,-14,-35,-41,23,-74,-6,15,-34,7,35,26,38, 
  /* [11][0][][] */ -16,52,-11,26,16,47,0,-17,26,-4,-127,-78,69,32,-17,-39,10,20,-49,-56,-10,15,84,20,58,9,-8,30,-15,18,-19,47,48,8,-47,-21,41,81,80,38,31,-35,49,-12,-39,-32,74,10, 
  /* [12][0][][] */ -69,10,18,13,-41,-60,11,8,-17,-44,-122,22,64,-78,19,30,39,87,105,-127,-23,43,-37,-58,-1,-11,39,-29,-10,2,-16,75,66,57,38,-30,-47,-38,12,10,-37,19,65,-23,43,-20,-41,-42, 
  /* [13][0][][] */ -50,-102,-61,-85,4,26,37,51,-127,12,110,-61,45,33,89,4,118,18,-33,-77,61,-71,119,7,-53,-12,-14,15,-13,-104,-99,-1,37,1,-46,39,15,-56,80,-55,-18,33,60,37,58,-29,95,-47, 
  /* [14][0][][] */ 42,41,-42,30,-52,4,-74,-19,-26,90,60,55,-8,-62,6,-38,55,-97,45,1,84,-70,25,-17,-9,127,-85,0,-49,-28,-90,8,110,30,75,-21,-81,10,-16,48,-6,-36,109,-44,-54,-49,-48,37, 
  /* [15][0][][] */ -48,10,21,21,79,-3,-6,46,16,66,-8,68,66,-16,-49,-35,15,25,4,-51,13,-46,-46,-49,27,-83,-51,64,-52,11,26,-3,-68,-9,127,6,-102,15,59,-12,-62,-15,19,24,-20,-5,-21,9, 
};
const TfArray<4, int> tensor_dimension21 = { 4, { 16,1,1,48 } };
const TfArray<16, float> quant21_scale = { 16, { 0.0051236744038760662, 0.0044928146526217461, 0.0065632970072329044, 0.0065245074220001698, 0.0033036209642887115, 0.0047867563553154469, 0.0036776778288185596, 0.0059422887861728668, 0.0027658881153911352, 0.0034414210822433233, 0.0065366807393729687, 0.0056027211248874664, 0.0046145441010594368, 0.0045414995402097702, 0.0049655926413834095, 0.0042780903168022633, } };
const TfLiteAffineQuantization quant21 = { (TfLiteFloatArray*)&quant21_scale, (TfLiteIntArray*)&g0::quant8_zero, 0 };
const MODEL_SECTION(EI_MODEL_SECTION) ALIGN(16) int32_t tensor_data22[48] = { 13096, -1508, 20095, -2195, 17899, -1632, 33962, 329, 11896, 38330, 380, 32156, -429, 9629, 38785, 22851, -1140, 2662, 2725, 39288, -1485, 19678, -1, 9582, 23749, 34502, -68, -3222, -6682, 16521, 22483, -174, 1311, 815, 981, 15503, 12787, 31685, -1422, 24364, 23571, 2783, 1031, 15728, 1818, 384, 40802, 29323, };
const TfArray<1, int> tensor_dimension22 = { 1, { 48 } };
const TfArray<48, float> quant22_scale = { 48, { 8.8264227088075131e-05, 0.00012285893899388611, 6.411118374671787e-05, 6.3495645008515567e-05, 8.3763785369228572e-05, 0.00010465888044564053, 5.2070794481551275e-05, 0.0003499980375636369, 8.4504150436259806e-05, 6.7511726228985935e-05, 6.9851448643021286e-05, 8.23726732051e-05, 5.7179422583431005e-05, 9.7879405075218529e-05, 4.7338893637061119e-05, 9.3007132818456739e-05, 6.230768485693261e-05, 5.5407006584573537e-05, 0.00017891178140416741, 6.0465616115834564e-05, 8.2275924796704203e-05, 7.7913813584018499e-05, 8.3786755567416549e-05, 0.00011847978021251038, 6.1863407609052956e-05, 6.6137516114395112e-05, 6.3167695770971477e-05, 5.5054853874025866e-05, 0.00022022836492396891, 9.2683752882294357e-05, 5.617015267489478e-05, 0.00033668082323856652, 0.00012456491822376847, 0.00021605321671813726, 6.7158194724470377e-05, 6.3282241171691567e-05, 9.0687164629343897e-05, 5.8231493312632665e-05, 9.2422997113317251e-05, 9.5440336735919118e-05, 6.0444814153015614e-05, 0.00020206408225931227, 0.00022363392054103315, 8.7078085925895721e-05, 0.00016922893701121211, 6.165286322357133e-05, 4.4640983105637133e-05, 5.5427663028240204e-05, } };
const TfArray<48, int> quant22_zero = { 48, { 0,0,0,0,0,0,0,0,0,0,0,0,0,0,0,0,0,0,0,0,0,0,0,0,0,0,0,0,0,0,0,0,0,0,0,0,0,0,0,0,0,0,0,0,0,0,0,0 } };
const TfLiteAffineQuantization quant22 = { (TfLiteFloatArray*)&quant22_scale, (TfLiteIntArray*)&quant22_zero, 0 };
const MODEL_SECTION(EI_MODEL_SECTION) ALIGN(16) int8_t tensor_data23[1*3*3*48] = { 
  /* [0][0][][] */ -67,81,-127,101,-127,95,-41,56,-66,-88,46,-83,96,1,-42,-61,71,65,95,-113,60,-127,70,-99,-109,-92,63,92,-89,-60,-89,127,59,-97,48,-113,-83,-127,117,-49,-19,-83,127,-78,76,70,-127,-91, -72,61,-86,105,-48,110,-42,7,-127,-87,91,-93,103,-61,-58,-68,79,91,110,-127,59,-91,107,-127,-81,-92,65,127,60,-63,-85,93,80,-127,82,-107,-79,-113,111,-54,-72,72,126,-88,-19,107,-76,-106, -55,64,-16,21,-23,51,-42,49,1,-56,55,-66,41,-34,-43,-42,63,43,119,-54,15,-47,71,-56,-69,-41,38,77,108,-12,-89,51,34,-62,31,-66,-57,-20,72,-46,-74,-64,42,-24,-74,82,-76,-100, 
  /* [0][1][][] */ -85,107,-65,105,-37,120,-103,127,-76,-117,83,-104,103,-85,-77,-127,117,110,-30,-86,102,-78,104,-71,-104,-109,123,98,-127,-100,-113,108,109,57,88,-86,-110,-65,101,-96,-127,-93,115,-96,114,56,-113,-84, -127,123,-95,127,-94,127,-127,53,-109,-127,127,-127,127,-127,-127,-106,127,127,-28,-65,127,-80,127,-55,-126,-127,127,120,28,-127,-127,100,127,32,127,-127,-127,-65,127,-127,-65,127,107,-112,-45,127,-84,-65, -53,127,-62,44,-113,62,-65,65,-82,-75,67,-92,51,-82,-65,-21,85,60,-12,-20,44,-81,91,-42,-123,-49,60,61,109,-59,-55,118,44,27,40,-45,-63,20,63,-56,-14,-101,63,-127,-127,57,-38,-41, 
